MTP
version = 1.1.0
potential_name = MTP1m
scaling = 1.233723202630767e-01
species_count = 4
potential_tag = 
radial_basis_type = RBChebyshev
	min_dist = 1.427383004833854e+00
	max_dist = 5.000000000000000e+00
	radial_basis_size = 8
	radial_funcs_count = 3
	radial_coeffs
		0-0
			{8.200915337723372e-02, 1.942787682981597e-01, 3.133497125148212e-02, 1.087169570750744e-01, 7.513728502716146e-03, 3.978308937744009e-02, 4.002900876756808e-04, 8.015653813194858e-03}
			{-1.510350002518483e-01, 5.481245761611498e-02, -6.728523415770596e-02, -3.430931209934935e-02, -1.203486348845432e-02, -1.870666701832640e-02, 3.411389520675527e-04, -4.844911927203459e-03}
			{1.586061299344654e-01, -7.263017934499312e-02, 1.126055311339396e-01, 7.666839355643469e-03, 2.544298112363545e-02, 1.198012049175843e-02, 2.732579197490684e-03, 3.524113938367009e-03}
		0-1
			{-1.047370200849441e-01, -7.442865665412390e-02, -5.718230935337563e-02, -4.413155550844710e-02, -2.088720664540528e-02, -9.544959671809445e-03, -3.549197137592686e-03, -9.714932584363770e-04}
			{1.021706296039607e-01, 2.697798381379586e-02, 5.149763208952340e-02, 3.513472161809119e-02, 8.141858259041420e-03, 4.826233831294998e-03, 1.566046908470163e-03, -9.119336478946691e-04}
			{-5.538067615319858e-02, 5.326743693918868e-02, -7.424274538162291e-02, -2.437338121913922e-02, -2.442320958951229e-02, -2.951274105563420e-02, -1.842838095386515e-02, -8.328452295515834e-03}
		0-2
			{-1.144867795110805e-01, -1.021070450952131e-01, -6.808817318746239e-02, -5.160429088458265e-02, -2.810038758892134e-02, -1.116122142544542e-02, -6.198105876015297e-03, -1.350538403537968e-03}
			{6.905117217975107e-02, 4.895153429253307e-02, 2.363736848066824e-02, 4.079147728864350e-02, 2.962221712607985e-03, 2.222288798072033e-03, 1.217027472278633e-03, 1.787420294841003e-04}
			{-7.776635020414800e-02, 6.993593774776487e-03, -3.535678006066520e-02, -6.714969719855950e-02, 1.368861777006026e-02, -3.911340592989686e-02, 7.234975718181744e-03, -8.659437245741560e-03}
		0-3
			{-1.431084650691127e-01, -1.702654329371914e-01, -1.056942217205177e-01, -8.828026652687929e-02, -4.172989693563620e-02, -2.993743727195137e-02, -8.584058187888115e-03, -5.336117659605365e-03}
			{9.997371818373368e-02, -9.655756760799243e-02, 9.925836562410219e-02, -5.270523741378195e-02, 5.070652917665241e-02, -3.071587562521590e-02, 1.116689184265801e-02, -8.242030488655652e-03}
			{4.542169083334783e-02, -2.701067913753904e-01, 2.320466167657416e-01, -2.726726156297935e-01, 1.370911030239964e-01, -1.369333492325019e-01, 3.197068085700674e-02, -3.731179884051603e-02}
		1-0
			{-3.564608186137826e-02, -2.844585233322670e-02, -3.159524550582801e-02, -1.897487156991647e-02, -1.185372453088459e-02, -7.547609334407542e-03, -3.174828427148837e-03, -1.608321197582695e-03}
			{-3.399476858657310e-02, -4.976156956450799e-02, 2.988530493046786e-02, -1.362452691128242e-02, 1.624350252247291e-02, 1.100924747104767e-02, 2.771870324402231e-03, 5.839388799435965e-03}
			{-4.378594499926407e-02, 9.452655195279866e-03, 5.457644349674434e-02, -6.007794276675475e-03, 3.119543095029345e-02, 1.475165578943831e-02, 1.979497045713646e-02, 4.795207098653548e-03}
		1-1
			{3.065833583270900e-02, 4.375862465184730e-02, 2.664378055479136e-02, 2.290674659041510e-02, 1.222865529994258e-02, 8.445338244621981e-03, 2.758030751137714e-03, 1.367988422537491e-03}
			{4.882167754077765e-02, -1.563838964013861e-02, -9.716265809246671e-03, -3.013068557424036e-03, -1.555785569674177e-02, -8.487990619380797e-03, -5.654601084500647e-03, -2.939915838949457e-03}
			{6.446140826492930e-03, -1.107623499209281e-01, 1.164420963234335e-03, -3.186860255122656e-02, -7.279890727509488e-03, -8.286718261495780e-03, -1.996270791413606e-03, -1.188700946833332e-03}
		1-2
			{3.823810571605440e-02, 8.215179209040925e-02, 3.397198188773099e-02, 4.610353425874587e-02, 1.206704762466873e-02, 1.819570590788314e-02, 2.129307472271481e-03, 3.921084349792952e-03}
			{1.238404698820520e-01, -2.283170178953924e-01, 1.129769806915823e-01, -1.343288108550932e-01, 5.946056124047477e-02, -6.243957090996135e-02, 1.763692747289244e-02, -1.261228790746197e-02}
			{4.947815010188807e-02, -8.699222458141348e-02, 1.024320124444080e-01, -5.856429730394973e-02, -3.160649629839988e-03, -2.558891354810603e-02, -1.265659422581851e-02, -1.104907785379881e-02}
		1-3
			{8.999716690371914e-03, 1.415588462131773e-01, -1.230843956485975e-02, 8.032301482451641e-02, -9.091873943943120e-03, 2.967751003661873e-02, -2.182675148046995e-03, 5.542647509149702e-03}
			{1.436748654617826e-01, -9.774647717752501e-02, 1.320731243458374e-01, -5.972254270522221e-02, 6.329851193813983e-02, -2.080591228383205e-02, 1.247638628777454e-02, 9.597360266214435e-04}
			{-4.185751079886839e-02, -2.643006580305731e-01, -1.506652102791556e-02, -7.772521057986495e-02, -7.688680015788547e-03, -3.389704386241510e-02, 3.006498823746723e-03, -2.006659402418111e-02}
		2-0
			{-9.796375132110625e-02, -8.301162911529775e-02, -7.492372045455975e-02, -5.240351231539842e-02, -2.789449695256116e-02, -1.749425912659579e-02, -5.056201786234437e-03, -2.514337414856342e-03}
			{1.784271082777061e-02, -2.183121906101324e-02, 5.604607841614737e-02, 3.195986565859507e-02, 1.509712193253973e-02, 2.080810378000341e-02, 4.214610464585317e-03, 5.702729703263244e-03}
			{-4.806929430729920e-02, -1.632164709338772e-01, 6.239268882876532e-02, -7.648529674884172e-02, 7.434214938654924e-03, -4.474480970304870e-03, -4.511804318185353e-03, 1.371760713237589e-03}
		2-1
			{7.477184533567688e-02, 1.094437769106370e-01, 5.366446189592725e-02, 5.169990834110846e-02, 1.727402500150957e-02, 1.638744000020327e-02, 2.037392653197270e-03, 2.255079993178960e-03}
			{-2.465916203460197e-02, 1.381832983981099e-01, -4.260509845737272e-02, 1.042937107681903e-01, -1.238557495889597e-02, 4.708574050277252e-02, -2.517981315092576e-03, 1.134152623324259e-02}
			{7.425311477403908e-03, -1.113540158775978e-01, -9.994936302390701e-02, 1.707251906248114e-02, -1.138191806152934e-02, 1.613242160082922e-02, 8.576607236062676e-03, 8.422323231259280e-03}
		2-2
			{3.842470561758585e-02, 1.062697237126680e-02, 6.947304473945600e-03, -2.101418762215763e-02, 9.895189122911985e-03, -2.782500771590094e-02, 5.209100613236733e-03, -1.265460508352853e-02}
			{2.337748566448207e-02, 2.115807206085212e-01, 1.416064584605476e-02, 1.409366008648115e-01, -2.148669711857151e-02, 6.440229230923937e-02, -1.559225559367993e-02, 2.066884961104561e-02}
			{9.089919765653204e-02, -1.042078796534207e-01, 5.401119258989993e-02, -3.044324362954097e-02, 1.574849701884869e-02, -1.357324631761889e-02, 3.905093228229280e-03, -4.877626855979717e-03}
		2-3
			{4.147309098153410e-02, 3.785110822734867e-01, -4.735049005638794e-04, 2.265267874841208e-01, 3.203327267676285e-04, 8.620814311378143e-02, 2.303839036192572e-03, 1.820790905558808e-02}
			{-1.460924844433873e-01, 1.651674523912450e-02, -2.229351153631131e-01, 3.019638259564969e-02, -1.184670013323019e-01, 2.237614582246341e-02, -3.097085460670783e-02, 4.302494568302955e-03}
			{2.751493315176435e-02, -8.534445163757658e-02, -1.246209594171683e-02, -8.802471404345599e-02, 5.486359517010258e-03, -7.038222458335097e-02, 7.975676625090900e-03, -3.763338974964867e-02}
		3-0
			{-1.132430715463177e-01, -1.730877074683699e-01, -4.866796757432177e-02, -1.203265978917500e-01, -8.384041246292094e-03, -5.214918787397980e-02, -7.471520468167049e-04, -1.251587187996039e-02}
			{1.711378660088709e-01, -4.632205504661506e-01, 2.215094317765032e-01, -1.928019993666935e-01, 7.615856035879584e-02, -6.928217210470380e-02, 1.599115286981213e-02, -1.413465219910618e-02}
			{-5.269165336165946e-02, -3.109389952717403e-01, 5.951156852947007e-03, -7.920125366600804e-02, -4.867253699508284e-02, 3.256265216119765e-02, -1.869748680141400e-02, 2.046966771777243e-02}
		3-1
			{4.976554274234844e-02, 2.220746622340124e-01, -1.126945774373794e-02, 1.399253289697867e-01, -1.163841873215053e-02, 5.255082187614996e-02, -3.810289884609264e-03, 8.485205656331646e-03}
			{-4.508463667404537e-02, -1.110752894249130e-01, 4.175896851180720e-03, -1.121450549410642e-01, 1.748638916220590e-02, -4.579342189709043e-02, 2.621763652681672e-03, -8.414506531607991e-03}
			{1.852271073317955e-01, 4.460512441965363e-02, 9.718314167793082e-02, 3.027077600562304e-02, 2.259727559125623e-02, 2.619077461581350e-02, -9.942066296761564e-04, 1.929889446810395e-02}
		3-2
			{1.072511035956579e-01, 1.975723398042162e-01, 6.928173325826484e-02, 1.095436619913725e-01, 2.031918984020155e-02, 4.507218798106221e-02, 2.869438123194722e-03, 9.055762678263709e-03}
			{-1.685681247640052e-01, 7.181865489488344e-02, -1.899355702200077e-01, 2.201973815231930e-02, -1.015020387597772e-01, 1.616914206013062e-02, -3.395290042413895e-02, -1.326072213412951e-03}
			{2.530068505959238e-01, -1.999780449478929e-02, 2.021871033203653e-01, 1.299690489775724e-01, 3.668716695207234e-02, 1.124545235622963e-01, -3.606769687882675e-03, 5.015188610767653e-02}
		3-3
			{1.644352141427933e-02, 4.649979544214628e-01, -8.144790885919886e-02, 2.621227122138624e-01, -5.203878816259953e-02, 9.615867223441445e-02, -1.439922826367231e-02, 1.773825586680849e-02}
			{-1.881272777153635e-01, 6.089506663046197e-02, -1.964353480112331e-01, 1.934838110038796e-02, -8.825784776985138e-02, -4.774437035922932e-03, -1.334173726228547e-02, -9.086470064616206e-03}
			{2.647167944877549e-01, -1.777178591254647e-01, 2.264319532248257e-01, -2.491852402122882e-02, 4.424403249194932e-02, 2.051474472360854e-02, -2.514282214913068e-04, 7.782185589321033e-03}
alpha_moments_count = 84
alpha_index_basic_count = 46
alpha_index_basic = {{0, 0, 0, 0}, {0, 1, 0, 0}, {0, 0, 1, 0}, {0, 0, 0, 1}, {0, 2, 0, 0}, {0, 1, 1, 0}, {0, 1, 0, 1}, {0, 0, 2, 0}, {0, 0, 1, 1}, {0, 0, 0, 2}, {0, 3, 0, 0}, {0, 2, 1, 0}, {0, 2, 0, 1}, {0, 1, 2, 0}, {0, 1, 1, 1}, {0, 1, 0, 2}, {0, 0, 3, 0}, {0, 0, 2, 1}, {0, 0, 1, 2}, {0, 0, 0, 3}, {0, 4, 0, 0}, {0, 3, 1, 0}, {0, 3, 0, 1}, {0, 2, 2, 0}, {0, 2, 1, 1}, {0, 2, 0, 2}, {0, 1, 3, 0}, {0, 1, 2, 1}, {0, 1, 1, 2}, {0, 1, 0, 3}, {0, 0, 4, 0}, {0, 0, 3, 1}, {0, 0, 2, 2}, {0, 0, 1, 3}, {0, 0, 0, 4}, {1, 0, 0, 0}, {1, 1, 0, 0}, {1, 0, 1, 0}, {1, 0, 0, 1}, {1, 2, 0, 0}, {1, 1, 1, 0}, {1, 1, 0, 1}, {1, 0, 2, 0}, {1, 0, 1, 1}, {1, 0, 0, 2}, {2, 0, 0, 0}}
alpha_index_times_count = 117
alpha_index_times = {{0, 0, 1, 46}, {1, 1, 1, 47}, {2, 2, 1, 47}, {3, 3, 1, 47}, {1, 4, 1, 48}, {2, 5, 1, 48}, {3, 6, 1, 48}, {1, 5, 1, 49}, {2, 7, 1, 49}, {3, 8, 1, 49}, {1, 6, 1, 50}, {2, 8, 1, 50}, {3, 9, 1, 50}, {4, 4, 1, 51}, {5, 5, 1, 51}, {6, 6, 1, 51}, {4, 5, 1, 52}, {5, 7, 1, 52}, {6, 8, 1, 52}, {4, 6, 1, 53}, {5, 8, 1, 53}, {6, 9, 1, 53}, {5, 5, 1, 54}, {7, 7, 1, 54}, {8, 8, 1, 54}, {5, 6, 1, 55}, {7, 8, 1, 55}, {8, 9, 1, 55}, {6, 6, 1, 56}, {8, 8, 1, 56}, {9, 9, 1, 56}, {4, 4, 1, 57}, {5, 5, 2, 57}, {6, 6, 2, 57}, {7, 7, 1, 57}, {8, 8, 2, 57}, {9, 9, 1, 57}, {4, 10, 1, 58}, {5, 11, 2, 58}, {6, 12, 2, 58}, {7, 13, 1, 58}, {8, 14, 2, 58}, {9, 15, 1, 58}, {4, 11, 1, 59}, {5, 13, 2, 59}, {6, 14, 2, 59}, {7, 16, 1, 59}, {8, 17, 2, 59}, {9, 18, 1, 59}, {4, 12, 1, 60}, {5, 14, 2, 60}, {6, 15, 2, 60}, {7, 17, 1, 60}, {8, 18, 2, 60}, {9, 19, 1, 60}, {10, 10, 1, 61}, {11, 11, 3, 61}, {12, 12, 3, 61}, {13, 13, 3, 61}, {14, 14, 6, 61}, {15, 15, 3, 61}, {16, 16, 1, 61}, {17, 17, 3, 61}, {18, 18, 3, 61}, {19, 19, 1, 61}, {20, 20, 1, 62}, {21, 21, 4, 62}, {22, 22, 4, 62}, {23, 23, 6, 62}, {24, 24, 12, 62}, {25, 25, 6, 62}, {26, 26, 4, 62}, {27, 27, 12, 62}, {28, 28, 12, 62}, {29, 29, 4, 62}, {30, 30, 1, 62}, {31, 31, 4, 62}, {32, 32, 6, 62}, {33, 33, 4, 62}, {34, 34, 1, 62}, {0, 35, 1, 63}, {1, 36, 1, 64}, {2, 37, 1, 64}, {3, 38, 1, 64}, {4, 39, 1, 65}, {5, 40, 2, 65}, {6, 41, 2, 65}, {7, 42, 1, 65}, {8, 43, 2, 65}, {9, 44, 1, 65}, {0, 45, 1, 66}, {35, 35, 1, 67}, {0, 46, 1, 68}, {0, 47, 1, 69}, {0, 57, 1, 70}, {0, 61, 1, 71}, {1, 48, 1, 72}, {2, 49, 1, 72}, {3, 50, 1, 72}, {1, 58, 1, 73}, {2, 59, 1, 73}, {3, 60, 1, 73}, {4, 51, 1, 74}, {5, 52, 2, 74}, {6, 53, 2, 74}, {7, 54, 1, 74}, {8, 55, 2, 74}, {9, 56, 1, 74}, {0, 63, 1, 75}, {0, 64, 1, 76}, {35, 47, 1, 77}, {47, 47, 1, 78}, {0, 68, 1, 79}, {0, 69, 1, 80}, {0, 70, 1, 81}, {0, 72, 1, 82}, {0, 75, 1, 83}}
alpha_scalar_moments = 29
alpha_moment_mapping = {0, 35, 45, 46, 47, 57, 61, 62, 63, 64, 65, 66, 67, 68, 69, 70, 71, 72, 73, 74, 75, 76, 77, 79, 80, 81, 82, 78, 83}
species_coeffs = {-8.841185432853575e-01, -1.868177178651680e+00, -8.306406973528874e+00, -2.089111392438737e+00}
moment_coeffs = {2.735013099361944e+01, 3.773105014888469e+00, 7.018148580314996e+00, 2.187131579441758e+02, 4.545735116201403e+01, 9.196291323425763e+00, -2.867519347691039e+00, 2.262846755178299e-02, 6.053912594649618e+01, 3.214570954959893e+01, 4.929859152495533e+00, 5.932556375690082e+00, -3.802304807323045e-01, 7.478180076479589e+02, 1.424108103364478e+02, 3.363820766257236e+01, -1.472604820013757e+01, 3.839908081222720e+01, 5.614134644034732e+00, 5.267011647498887e+00, 3.215932978147929e+02, 8.689727640012228e+01, 1.111280212710867e+01, 9.979500064304218e+02, -1.447200364719119e+02, 1.311901949169962e+02, 4.863817318093776e+01, 2.283025834310621e+01, 5.433563829040919e+02}