MTP
version = 1.1.0
potential_name = MTP1m
scaling = 1.048259601039611e-02
species_count = 4
potential_tag = 
radial_basis_type = RBChebyshev
	min_dist = 1.427383004833854e+00
	max_dist = 5.000000000000000e+00
	radial_basis_size = 8
	radial_funcs_count = 4
	radial_coeffs
		0-0
			{1.753096780124409e-02, -3.296946801672645e-02, 3.065126811999615e-03, -4.428677322914408e-03, 2.519802768951227e-04, -5.948933047980307e-04, -4.298410338780412e-04, 2.421998961441427e-04}
			{6.610453641351681e-02, 2.044215553183933e-01, 3.508953838745903e-02, 1.050019290301125e-01, 8.868003278325823e-03, 3.860760441271699e-02, 1.271674124638776e-03, 7.615342629384530e-03}
			{-1.218960013558921e-01, -2.050960039374496e-01, -4.151560516624017e-02, -1.250009970201698e-01, -8.364683792885489e-03, -3.985764156912618e-02, -5.360761978365155e-04, -6.910497349025186e-03}
			{1.355921978351310e-01, -2.749369266779977e-01, 1.237638023629168e-01, -9.724708981391399e-02, 2.892192815367836e-02, -2.354547130838489e-02, 3.989844257236602e-03, -3.403016870767574e-03}
		0-1
			{1.716157796487335e-03, 2.880066925452228e-02, 9.235386938869940e-03, 5.310892556614761e-03, 4.892091638633576e-03, 1.906501495202547e-03, 7.187466802120343e-04, 2.083091772935296e-04}
			{-8.903152853417404e-02, -8.482977770982789e-02, -6.125891912015046e-02, -4.123843251719730e-02, -2.359835303719089e-02, -1.137888104337236e-02, -4.833804592755505e-03, -1.268542139856987e-03}
			{1.886739207536017e-01, 1.618829007086960e-01, 1.243836241594955e-01, 8.682629080307885e-02, 4.518048888082157e-02, 2.148195365966190e-02, 8.761287907394010e-03, 1.190472491727070e-03}
			{-7.469705789995457e-02, -1.478089869069584e-02, -1.188319283463022e-02, -3.253909212193395e-02, -4.899970490794214e-03, -1.596995619536049e-02, -2.252897032819960e-04, -2.486720274863576e-03}
		0-2
			{1.683187582375941e-02, 3.812312732013127e-02, 2.761231171021016e-02, 1.431132682709833e-02, 1.278981326643889e-02, 6.673708250365009e-03, 3.050602560413482e-03, 9.899689355099535e-04}
			{-1.163376688973121e-01, -1.171136819031889e-01, -8.911657881086948e-02, -6.035269598758336e-02, -3.595276662931930e-02, -1.910135765153556e-02, -8.010305154597278e-03, -2.982762875603248e-03}
			{2.179123246265699e-01, 2.616537413647770e-01, 1.699849237442345e-01, 1.428936168790460e-01, 7.300596416754514e-02, 4.600731434946709e-02, 1.862863370833280e-02, 7.029333136646215e-03}
			{3.912142546930721e-02, -2.038505661652648e-02, 1.181003373997358e-01, -4.994062572419383e-02, 5.657316482089794e-02, -2.311355949468616e-02, 7.324283344042342e-03, -4.259580265228475e-03}
		0-3
			{2.843893674719056e-04, 1.198410628378694e-01, -1.056054327581873e-02, 6.398981146560165e-02, -8.946793457152812e-03, 2.751273616887707e-02, -1.651725977310908e-03, 6.267998405804024e-03}
			{-1.139611424211965e-01, -2.376351153056031e-01, -6.202698841639438e-02, -1.340170966105966e-01, -1.514870961584656e-02, -5.422359482201036e-02, -2.939405379041132e-03, -1.164615432910317e-02}
			{1.423091087232249e-01, 5.492846806997066e-01, 3.113503424835985e-02, 3.079221722637481e-01, -1.639945293666713e-03, 1.222404586901670e-01, -3.961423668858197e-04, 2.786915188832208e-02}
			{1.731236094666355e-01, -1.432806400913594e-01, 2.950535235913784e-01, -1.304746649849583e-01, 1.135753921270386e-01, -3.433685078314659e-02, 2.109332039224806e-02, -5.120975841255576e-03}
		1-0
			{-1.025161665609293e-01, 2.356772649526190e-02, -5.672478829358056e-02, -1.142108607334070e-02, -5.894068005880148e-03, 1.503146366545327e-03, -4.342109711088544e-04, 2.071927376462184e-03}
			{-1.246579057023072e-02, -8.081917855648810e-02, -1.949288971269172e-02, -2.476013721479231e-02, -1.493917600210515e-02, -1.009647530677250e-02, -4.590755521613268e-03, -2.212440442498173e-03}
			{8.481126487454563e-03, -4.782338785489058e-02, -3.095831731711894e-03, -9.989209073358813e-03, -6.213059321500911e-03, -4.821334587290615e-03, -2.165258765440162e-03, -1.353868618294687e-03}
			{-5.197294398080894e-04, 8.824816601818490e-02, 2.416034115420072e-02, 1.101163577273813e-02, 1.584615575527200e-02, -3.287751294831170e-03, 3.053301584960985e-03, -3.225397640005236e-03}
		1-1
			{6.477758507837542e-02, 4.393208188790622e-02, 3.642228686076581e-02, 3.379227843105694e-02, 9.698901056026865e-03, 1.315343381937782e-02, 1.334686258804436e-03, 1.691264288296698e-03}
			{3.500048206194451e-02, 7.870871078922055e-02, 3.528416322314218e-02, 3.051370781003011e-02, 1.851638511771509e-02, 9.214018592713759e-03, 4.282793181100232e-03, 1.571240054901176e-03}
			{8.436080678471390e-03, 3.308145917124514e-02, 1.409553650714664e-02, 6.879001042983076e-03, 8.061880606583366e-03, 4.372490162643617e-04, 2.046727444259500e-03, -4.309808645964198e-05}
			{6.591986671666458e-02, -1.164180139276624e-01, 3.373365358844848e-02, -2.412929799959168e-02, 6.443786198336045e-03, -8.701921984100264e-03, 1.163893369388416e-03, -1.548455910105664e-03}
		1-2
			{4.143912460679518e-02, 1.369242894676533e-01, -5.117164354247248e-03, 9.186040245028687e-02, -1.172472850241931e-02, 2.950714602000057e-02, -1.032579412464399e-03, 2.793768858531497e-03}
			{8.104206634522484e-02, 6.320714644946640e-02, 1.064835156730128e-01, 7.940979166905709e-03, 4.759088147047100e-02, 1.902489850251275e-03, 9.335503416188582e-03, 1.027803405243107e-03}
			{3.770505438407056e-02, 2.337991925989454e-03, 6.119382791742375e-02, -1.744918911993708e-02, 2.813601682880972e-02, -6.236243412661145e-03, 5.488141230298258e-03, -1.850169693775857e-04}
			{8.443576792118768e-02, -2.365686558109461e-01, 6.675906850650735e-02, -1.124467663495853e-01, 2.081333202342594e-02, -4.773684381618785e-02, 5.806770671872256e-03, -1.279020456116558e-02}
		1-3
			{1.356486112222857e-02, 1.687799394020800e-01, -3.961118671019737e-02, 1.015897160399900e-01, -1.396886218107526e-02, 3.348583028373762e-02, -2.174805653235753e-03, 6.995201512746875e-03}
			{3.620512318462808e-02, 2.170153240593667e-01, 2.690464154603976e-02, 1.119743218501023e-01, 7.043643850963769e-05, 4.531241875813224e-02, -1.671142204409429e-03, 8.039760242929322e-03}
			{2.494714424505405e-02, 8.181182450298226e-02, 3.344465954933118e-02, 3.941292063734179e-02, 5.836760922187457e-03, 1.871298196200239e-02, -7.775073928903765e-05, 3.656039960745859e-03}
			{1.076897993346891e-01, -5.707499504903070e-02, 7.383015412872752e-02, 2.562118188744213e-02, 1.051093018452993e-02, 1.750932665168843e-02, 1.756366560319455e-04, 5.070379876660409e-03}
		2-0
			{-2.137881097383346e-01, -8.618488993261034e-02, -1.381228813357743e-01, -6.297009632241467e-02, -5.624963702443652e-02, -1.433705302011780e-02, -1.106651149710533e-02, -2.027876113020510e-03}
			{3.052409669380939e-02, -2.693217033027114e-02, 1.327791469023875e-02, -4.275657714453355e-03, 5.898761006454566e-03, -2.368583658834105e-03, 7.649182716781283e-04, 5.281232200535567e-04}
			{4.806003447254371e-02, 2.421569407802189e-03, 3.191650529242305e-02, 1.441642711708851e-02, 1.371789359218861e-02, 4.596436136301170e-03, 2.691311321028577e-03, 1.502044133633716e-03}
			{1.440719986167407e-02, -3.323084555700036e-02, 6.758724447390202e-02, -5.294162430948534e-02, 3.358654730578396e-02, -1.417977970516265e-02, 7.235883792527120e-03, -1.100953477479125e-03}
		2-1
			{1.246287328908872e-01, 1.711054099459174e-01, 8.920075946811062e-02, 1.343134335332960e-01, 3.363855210852318e-02, 6.258932846664711e-02, 3.974897504513650e-03, 1.695460492040384e-02}
			{1.889614643829136e-02, 1.239664194520905e-02, 1.341029926199996e-02, -2.579876201952901e-02, 4.819254666143941e-03, -1.856628695821688e-02, 2.316390285029872e-03, -6.505474701775504e-03}
			{-3.183637041131109e-03, 1.542633613475787e-03, 9.069093601178045e-05, -2.616613614485049e-02, -6.660976515255537e-04, -1.567782184958055e-02, 8.247366463165699e-04, -4.819552891325683e-03}
			{1.058967570140520e-01, -2.395774934294581e-01, 8.045042925729801e-02, -1.167071044834832e-01, 2.794051120054911e-02, -4.345831753577325e-02, 4.424986481737158e-03, -7.669537254163919e-03}
		2-2
			{9.432827226510811e-02, -1.395727885908003e-02, 5.200934055492726e-02, -3.769018898591767e-02, 2.366903381507058e-02, -4.309872718894133e-02, 5.855620020500079e-03, -1.407714048325549e-02}
			{-7.375673148407595e-03, 5.529410611100272e-02, -2.281245181141455e-02, 1.320820132423100e-02, -9.012628734645575e-03, -8.232998545635702e-04, -2.536321174236327e-04, -4.785803484040807e-03}
			{-1.433993785226816e-02, 4.188794607677129e-02, -1.833328124894431e-02, 1.734757687779532e-02, -1.269083378095908e-02, 9.307466538215740e-03, -2.772644431285318e-03, 7.328665303087423e-04}
			{8.497777720673667e-02, -6.903059827702052e-02, 2.364575789884027e-02, 1.955154098837909e-02, -7.815540239260151e-03, 2.237429504605962e-02, -1.733881761671977e-03, 2.385673446985002e-03}
		2-3
			{-9.869287462766911e-03, -4.391971803933637e-03, -8.860253262983216e-02, -1.518896447908244e-02, -1.418199950354502e-02, -3.662109856828222e-02, 5.879694520141760e-03, -1.024976408713434e-02}
			{7.337342620954894e-02, 4.249198336034607e-01, 7.681707372954218e-02, 2.472520337827555e-01, 1.189784484303355e-02, 1.118897125733713e-01, -2.701603570429645e-03, 2.280616465520948e-02}
			{7.514380601242258e-02, 2.379024784058895e-01, 1.010122585099704e-01, 1.444809869387383e-01, 1.871642062006768e-02, 7.758547918458390e-02, -3.168411250305305e-03, 1.771383850107133e-02}
			{1.492193995540377e-01, -4.083561383466610e-02, 8.482254648117227e-02, 4.280411912232955e-02, -1.996280195178450e-03, 4.404581653611271e-02, -1.224401876013991e-02, 1.425820991816090e-02}
		3-0
			{-2.633324498441803e-01, -4.049997503225388e-01, -1.389166172732143e-01, -2.381251663501144e-01, -3.583672268679761e-02, -9.403014316572758e-02, -6.024695232495110e-03, -1.975775911768416e-02}
			{5.706370478647849e-02, 1.157149344745793e-01, 3.209545677368117e-02, 6.664236467739773e-02, 5.094473022089920e-03, 2.634563137749905e-02, 1.082936324185847e-03, 5.514016645218629e-03}
			{8.544890207427269e-02, 6.281444943977169e-02, 6.210482334253901e-02, 5.134937998983789e-02, 1.566315100756521e-02, 2.024146023844092e-02, 3.187535119252907e-03, 4.332690419001700e-03}
			{1.265218420955680e-01, -1.631287942746456e-01, 2.430125697373081e-01, -8.214450545061679e-02, 7.267462868026266e-02, -6.287714965768932e-03, 1.013178780988108e-02, 2.741942082156348e-03}
		3-1
			{1.228373081062047e-01, 4.218958828242725e-02, 5.163313073256901e-02, 3.304233512773024e-02, 1.242157740911566e-02, 1.443677145073855e-02, 6.844715253845604e-04, 4.165981061103605e-03}
			{-1.140301611463833e-02, 1.995426428529244e-01, -2.097833973380675e-02, 1.158884481938053e-01, -9.992416433878826e-03, 4.467061330559211e-02, -2.201934931316318e-03, 8.421634813758844e-03}
			{-3.288474412928635e-02, 9.123938082649061e-02, -1.514941767663226e-02, 4.289977223905119e-02, -2.951641205376926e-03, 1.694784749382561e-02, -3.830106037985913e-04, 3.257283753581357e-03}
			{1.167944709000604e-01, 6.192076739554106e-02, 5.406266982413320e-02, 1.017255819891540e-01, 5.430494047941665e-04, 5.310789865493182e-02, -1.013022943379632e-03, 8.339827938198041e-03}
		3-2
			{2.514492107144880e-01, 2.958592177587097e-01, 2.583146333475874e-01, 2.260576865081359e-01, 8.983392358607839e-02, 1.193782793389317e-01, 1.920376610352963e-02, 2.906016893122035e-02}
			{-8.636279507371243e-02, 7.836504895615269e-02, -1.470401674046438e-01, 2.085012179197233e-02, -6.695549492209139e-02, -3.128297998612990e-03, -1.759693294982197e-02, -2.323394562026247e-03}
			{-9.661850171326045e-02, -1.362271329612073e-02, -1.195244763493268e-01, -3.713435507358671e-02, -5.399142398891452e-02, -2.188224814687800e-02, -1.513852241866499e-02, -6.632734220591846e-03}
			{1.546275029802791e-01, -2.537853215027352e-02, 6.894574378497316e-02, 3.313988804789728e-02, -1.929778139710798e-02, 3.479244438718074e-02, -1.576728088243431e-02, 5.939414342676456e-03}
		3-3
			{1.145909494590269e-02, 2.290970450616227e-01, -6.069758166038799e-02, 9.492896982584513e-02, -2.025720818958549e-03, 5.617162332043476e-03, 7.376961262934104e-03, -1.960726772904712e-05}
			{-4.637133929163099e-02, 4.076303816150450e-01, -1.303988520363913e-01, 2.692615324532009e-01, -1.005657020317896e-01, 1.221120223923325e-01, -3.079118060674874e-02, 2.205906875847180e-02}
			{-2.337795429970034e-02, 1.547815113971346e-01, -3.417747371214307e-02, 1.070586583329303e-01, -4.391289373670891e-02, 5.710549952728042e-02, -1.509382151401458e-02, 1.000536237904173e-02}
			{3.231550357550985e-01, 1.468381189986641e-02, 1.926869188059174e-01, 2.021170131155925e-01, -6.802316240246245e-02, 1.660689071849687e-01, -4.493037389335872e-02, 3.624572271156710e-02}
alpha_moments_count = 174
alpha_index_basic_count = 81
alpha_index_basic = {{0, 0, 0, 0}, {0, 1, 0, 0}, {0, 0, 1, 0}, {0, 0, 0, 1}, {0, 2, 0, 0}, {0, 1, 1, 0}, {0, 1, 0, 1}, {0, 0, 2, 0}, {0, 0, 1, 1}, {0, 0, 0, 2}, {0, 3, 0, 0}, {0, 2, 1, 0}, {0, 2, 0, 1}, {0, 1, 2, 0}, {0, 1, 1, 1}, {0, 1, 0, 2}, {0, 0, 3, 0}, {0, 0, 2, 1}, {0, 0, 1, 2}, {0, 0, 0, 3}, {0, 4, 0, 0}, {0, 3, 1, 0}, {0, 3, 0, 1}, {0, 2, 2, 0}, {0, 2, 1, 1}, {0, 2, 0, 2}, {0, 1, 3, 0}, {0, 1, 2, 1}, {0, 1, 1, 2}, {0, 1, 0, 3}, {0, 0, 4, 0}, {0, 0, 3, 1}, {0, 0, 2, 2}, {0, 0, 1, 3}, {0, 0, 0, 4}, {0, 5, 0, 0}, {0, 4, 1, 0}, {0, 4, 0, 1}, {0, 3, 2, 0}, {0, 3, 1, 1}, {0, 3, 0, 2}, {0, 2, 3, 0}, {0, 2, 2, 1}, {0, 2, 1, 2}, {0, 2, 0, 3}, {0, 1, 4, 0}, {0, 1, 3, 1}, {0, 1, 2, 2}, {0, 1, 1, 3}, {0, 1, 0, 4}, {0, 0, 5, 0}, {0, 0, 4, 1}, {0, 0, 3, 2}, {0, 0, 2, 3}, {0, 0, 1, 4}, {0, 0, 0, 5}, {1, 0, 0, 0}, {1, 1, 0, 0}, {1, 0, 1, 0}, {1, 0, 0, 1}, {1, 2, 0, 0}, {1, 1, 1, 0}, {1, 1, 0, 1}, {1, 0, 2, 0}, {1, 0, 1, 1}, {1, 0, 0, 2}, {1, 3, 0, 0}, {1, 2, 1, 0}, {1, 2, 0, 1}, {1, 1, 2, 0}, {1, 1, 1, 1}, {1, 1, 0, 2}, {1, 0, 3, 0}, {1, 0, 2, 1}, {1, 0, 1, 2}, {1, 0, 0, 3}, {2, 0, 0, 0}, {2, 1, 0, 0}, {2, 0, 1, 0}, {2, 0, 0, 1}, {3, 0, 0, 0}}
alpha_index_times_count = 348
alpha_index_times = {{0, 0, 1, 81}, {1, 1, 1, 82}, {2, 2, 1, 82}, {3, 3, 1, 82}, {1, 4, 1, 83}, {2, 5, 1, 83}, {3, 6, 1, 83}, {1, 5, 1, 84}, {2, 7, 1, 84}, {3, 8, 1, 84}, {1, 6, 1, 85}, {2, 8, 1, 85}, {3, 9, 1, 85}, {1, 10, 1, 86}, {2, 11, 1, 86}, {3, 12, 1, 86}, {1, 11, 1, 87}, {2, 13, 1, 87}, {3, 14, 1, 87}, {1, 12, 1, 88}, {2, 14, 1, 88}, {3, 15, 1, 88}, {1, 13, 1, 89}, {2, 16, 1, 89}, {3, 17, 1, 89}, {1, 14, 1, 90}, {2, 17, 1, 90}, {3, 18, 1, 90}, {1, 15, 1, 91}, {2, 18, 1, 91}, {3, 19, 1, 91}, {4, 4, 1, 92}, {5, 5, 1, 92}, {6, 6, 1, 92}, {4, 5, 1, 93}, {5, 7, 1, 93}, {6, 8, 1, 93}, {4, 6, 1, 94}, {5, 8, 1, 94}, {6, 9, 1, 94}, {5, 5, 1, 95}, {7, 7, 1, 95}, {8, 8, 1, 95}, {5, 6, 1, 96}, {7, 8, 1, 96}, {8, 9, 1, 96}, {6, 6, 1, 97}, {8, 8, 1, 97}, {9, 9, 1, 97}, {4, 4, 1, 98}, {5, 5, 2, 98}, {6, 6, 2, 98}, {7, 7, 1, 98}, {8, 8, 2, 98}, {9, 9, 1, 98}, {4, 10, 1, 99}, {5, 11, 2, 99}, {6, 12, 2, 99}, {7, 13, 1, 99}, {8, 14, 2, 99}, {9, 15, 1, 99}, {4, 11, 1, 100}, {5, 13, 2, 100}, {6, 14, 2, 100}, {7, 16, 1, 100}, {8, 17, 2, 100}, {9, 18, 1, 100}, {4, 12, 1, 101}, {5, 14, 2, 101}, {6, 15, 2, 101}, {7, 17, 1, 101}, {8, 18, 2, 101}, {9, 19, 1, 101}, {4, 20, 1, 102}, {5, 21, 2, 102}, {6, 22, 2, 102}, {7, 23, 1, 102}, {8, 24, 2, 102}, {9, 25, 1, 102}, {4, 21, 1, 103}, {5, 23, 2, 103}, {6, 24, 2, 103}, {7, 26, 1, 103}, {8, 27, 2, 103}, {9, 28, 1, 103}, {4, 22, 1, 104}, {5, 24, 2, 104}, {6, 25, 2, 104}, {7, 27, 1, 104}, {8, 28, 2, 104}, {9, 29, 1, 104}, {4, 23, 1, 105}, {5, 26, 2, 105}, {6, 27, 2, 105}, {7, 30, 1, 105}, {8, 31, 2, 105}, {9, 32, 1, 105}, {4, 24, 1, 106}, {5, 27, 2, 106}, {6, 28, 2, 106}, {7, 31, 1, 106}, {8, 32, 2, 106}, {9, 33, 1, 106}, {4, 25, 1, 107}, {5, 28, 2, 107}, {6, 29, 2, 107}, {7, 32, 1, 107}, {8, 33, 2, 107}, {9, 34, 1, 107}, {10, 10, 1, 108}, {11, 11, 2, 108}, {12, 12, 2, 108}, {13, 13, 1, 108}, {14, 14, 2, 108}, {15, 15, 1, 108}, {10, 11, 1, 109}, {11, 13, 2, 109}, {12, 14, 2, 109}, {13, 16, 1, 109}, {14, 17, 2, 109}, {15, 18, 1, 109}, {10, 12, 1, 110}, {11, 14, 2, 110}, {12, 15, 2, 110}, {13, 17, 1, 110}, {14, 18, 2, 110}, {15, 19, 1, 110}, {11, 11, 1, 111}, {13, 13, 2, 111}, {14, 14, 2, 111}, {16, 16, 1, 111}, {17, 17, 2, 111}, {18, 18, 1, 111}, {11, 12, 1, 112}, {13, 14, 2, 112}, {14, 15, 2, 112}, {16, 17, 1, 112}, {17, 18, 2, 112}, {18, 19, 1, 112}, {12, 12, 1, 113}, {14, 14, 2, 113}, {15, 15, 2, 113}, {17, 17, 1, 113}, {18, 18, 2, 113}, {19, 19, 1, 113}, {10, 10, 1, 114}, {11, 11, 3, 114}, {12, 12, 3, 114}, {13, 13, 3, 114}, {14, 14, 6, 114}, {15, 15, 3, 114}, {16, 16, 1, 114}, {17, 17, 3, 114}, {18, 18, 3, 114}, {19, 19, 1, 114}, {10, 20, 1, 115}, {11, 21, 3, 115}, {12, 22, 3, 115}, {13, 23, 3, 115}, {14, 24, 6, 115}, {15, 25, 3, 115}, {16, 26, 1, 115}, {17, 27, 3, 115}, {18, 28, 3, 115}, {19, 29, 1, 115}, {10, 21, 1, 116}, {11, 23, 3, 116}, {12, 24, 3, 116}, {13, 26, 3, 116}, {14, 27, 6, 116}, {15, 28, 3, 116}, {16, 30, 1, 116}, {17, 31, 3, 116}, {18, 32, 3, 116}, {19, 33, 1, 116}, {10, 22, 1, 117}, {11, 24, 3, 117}, {12, 25, 3, 117}, {13, 27, 3, 117}, {14, 28, 6, 117}, {15, 29, 3, 117}, {16, 31, 1, 117}, {17, 32, 3, 117}, {18, 33, 3, 117}, {19, 34, 1, 117}, {20, 20, 1, 118}, {21, 21, 4, 118}, {22, 22, 4, 118}, {23, 23, 6, 118}, {24, 24, 12, 118}, {25, 25, 6, 118}, {26, 26, 4, 118}, {27, 27, 12, 118}, {28, 28, 12, 118}, {29, 29, 4, 118}, {30, 30, 1, 118}, {31, 31, 4, 118}, {32, 32, 6, 118}, {33, 33, 4, 118}, {34, 34, 1, 118}, {35, 35, 1, 119}, {36, 36, 5, 119}, {37, 37, 5, 119}, {38, 38, 10, 119}, {39, 39, 20, 119}, {40, 40, 10, 119}, {41, 41, 10, 119}, {42, 42, 30, 119}, {43, 43, 30, 119}, {44, 44, 10, 119}, {45, 45, 5, 119}, {46, 46, 20, 119}, {47, 47, 30, 119}, {48, 48, 20, 119}, {49, 49, 5, 119}, {50, 50, 1, 119}, {51, 51, 5, 119}, {52, 52, 10, 119}, {53, 53, 10, 119}, {54, 54, 5, 119}, {55, 55, 1, 119}, {0, 56, 1, 120}, {1, 57, 1, 121}, {2, 58, 1, 121}, {3, 59, 1, 121}, {1, 60, 1, 122}, {2, 61, 1, 122}, {3, 62, 1, 122}, {1, 61, 1, 123}, {2, 63, 1, 123}, {3, 64, 1, 123}, {1, 62, 1, 124}, {2, 64, 1, 124}, {3, 65, 1, 124}, {4, 57, 1, 125}, {5, 58, 1, 125}, {6, 59, 1, 125}, {5, 57, 1, 126}, {7, 58, 1, 126}, {8, 59, 1, 126}, {6, 57, 1, 127}, {8, 58, 1, 127}, {9, 59, 1, 127}, {4, 60, 1, 128}, {5, 61, 2, 128}, {6, 62, 2, 128}, {7, 63, 1, 128}, {8, 64, 2, 128}, {9, 65, 1, 128}, {10, 66, 1, 129}, {11, 67, 3, 129}, {12, 68, 3, 129}, {13, 69, 3, 129}, {14, 70, 6, 129}, {15, 71, 3, 129}, {16, 72, 1, 129}, {17, 73, 3, 129}, {18, 74, 3, 129}, {19, 75, 1, 129}, {0, 76, 1, 130}, {1, 77, 1, 131}, {2, 78, 1, 131}, {3, 79, 1, 131}, {56, 56, 1, 132}, {57, 57, 1, 133}, {58, 58, 1, 133}, {59, 59, 1, 133}, {0, 81, 1, 134}, {0, 82, 1, 135}, {0, 98, 1, 136}, {0, 114, 1, 137}, {0, 118, 1, 138}, {1, 83, 1, 139}, {2, 84, 1, 139}, {3, 85, 1, 139}, {1, 86, 1, 140}, {2, 87, 1, 140}, {3, 88, 1, 140}, {1, 87, 1, 141}, {2, 89, 1, 141}, {3, 90, 1, 141}, {1, 88, 1, 142}, {2, 90, 1, 142}, {3, 91, 1, 142}, {1, 92, 1, 143}, {2, 93, 1, 143}, {3, 94, 1, 143}, {1, 93, 1, 144}, {2, 95, 1, 144}, {3, 96, 1, 144}, {1, 94, 1, 145}, {2, 96, 1, 145}, {3, 97, 1, 145}, {1, 99, 1, 146}, {2, 100, 1, 146}, {3, 101, 1, 146}, {1, 115, 1, 147}, {2, 116, 1, 147}, {3, 117, 1, 147}, {4, 102, 1, 148}, {5, 103, 2, 148}, {6, 104, 2, 148}, {7, 105, 1, 148}, {8, 106, 2, 148}, {9, 107, 1, 148}, {4, 92, 1, 149}, {5, 93, 2, 149}, {6, 94, 2, 149}, {7, 95, 1, 149}, {8, 96, 2, 149}, {9, 97, 1, 149}, {4, 108, 1, 150}, {5, 109, 2, 150}, {6, 110, 2, 150}, {7, 111, 1, 150}, {8, 112, 2, 150}, {9, 113, 1, 150}, {0, 120, 1, 151}, {0, 121, 1, 152}, {0, 128, 1, 153}, {1, 122, 1, 154}, {2, 123, 1, 154}, {3, 124, 1, 154}, {56, 82, 1, 155}, {1, 125, 1, 156}, {2, 126, 1, 156}, {3, 127, 1, 156}, {56, 98, 1, 157}, {0, 130, 1, 158}, {0, 132, 1, 159}, {82, 82, 1, 160}, {82, 98, 1, 161}, {0, 134, 1, 162}, {0, 135, 1, 163}, {0, 136, 1, 164}, {0, 137, 1, 165}, {0, 139, 1, 166}, {0, 146, 1, 167}, {0, 149, 1, 168}, {1, 140, 1, 169}, {2, 141, 1, 169}, {3, 142, 1, 169}, {1, 143, 1, 170}, {2, 144, 1, 170}, {3, 145, 1, 170}, {0, 151, 1, 171}, {0, 152, 1, 172}, {0, 155, 1, 173}}
alpha_scalar_moments = 52
alpha_moment_mapping = {0, 56, 76, 80, 81, 82, 98, 114, 118, 119, 120, 121, 128, 129, 130, 131, 132, 133, 134, 135, 136, 137, 138, 139, 146, 147, 148, 149, 150, 151, 152, 153, 154, 155, 156, 157, 158, 159, 162, 163, 164, 165, 166, 167, 168, 169, 160, 170, 161, 171, 172, 173}
species_coeffs = {-1.167595210158773e+00, -2.448791254449162e+00, -1.087934188366112e+01, -2.736220021944890e+00}
moment_coeffs = {1.506851552911589e+02, 1.221544606954488e+02, -4.736263630426313e+00, 4.358793024755111e+01, 4.861494536525520e+03, 1.987358858000874e+03, -1.959623723000279e+02, 1.751730723146917e+02, 2.980619730765819e+02, 1.318232348106395e+02, 1.109625993128045e+04, -1.242851482329453e+03, -2.266139990705146e+03, -6.934649453502893e+02, 1.028585987844742e+03, 5.359142145298828e+03, 5.213747434645295e+03, 1.297262490304855e+03, 3.155401261902149e+04, 2.490316224889283e+04, 6.986421529377741e+03, 2.042849647714708e+03, 1.891146887402278e+02, 9.137212486128881e+03, -2.485064806840071e+03, 4.218616644780491e+03, -3.550319642648352e+03, 1.605915813310066e+03, -1.761919976866210e+03, 3.927226222953804e+04, 6.878349002622251e+03, -2.126186600822473e+04, -1.887719553314896e+04, 2.815067531309057e+04, 3.105748086571887e+04, 1.752745488527840e+04, 2.584584799168388e+04, -2.249976341131857e+04, 7.957253410201158e+03, 1.264997550201003e+04, -1.427985166431452e+04, -1.069420625319497e+04, 3.264277970440300e+04, 1.139436260493942e+04, 4.265196855200033e+04, 2.554871634871294e+04, 7.692285152575899e+03, 1.936252398745207e+04, 3.397675469525476e+03, 3.382825371577375e+04, -2.203860555531316e+04, -4.476895385786999e+03}