MTP
version = 1.1.0
potential_name = MTP1m
scaling = 3.069898119570189e-01
species_count = 4
potential_tag = 
radial_basis_type = RBChebyshev
	min_dist = 1.400000000000000e+00
	max_dist = 5.000000000000000e+00
	radial_basis_size = 8
	radial_funcs_count = 4
	radial_coeffs
		0-0
			{-1.417139208703079e-01, -5.356444138955740e-01, -8.981196264024030e-02, -2.601617271020449e-01, -2.799325670994591e-02, -1.009483775326453e-01, -3.137413249829663e-03, -2.137832684437689e-02}
			{1.139509248779951e-01, 5.983842111029265e-03, -1.061840993068583e-03, 6.376217472322190e-02, -1.145564226496659e-02, 2.062542776405292e-02, -3.745925982433011e-03, 3.444884547018242e-03}
			{1.243165688725850e-01, -1.166424331008400e-03, 1.065916434276281e-02, 5.507574716660266e-02, -1.201919348706517e-02, 1.802490224552692e-02, -3.814913519101408e-03, 2.231113429729923e-03}
			{-4.684447745417643e-02, 2.132960960637048e-01, -9.907863834132510e-02, 1.013298166185319e-01, -2.883910672325780e-02, 2.577850320949650e-02, -4.565407261554350e-03, 3.471886803283681e-03}
		0-1
			{6.041605338491254e-02, 9.138197702354980e-02, 3.201137990562768e-02, 2.619818458601635e-02, 2.203228847316204e-02, 1.030506553445653e-02, 4.733726298350332e-03, 2.495663992124251e-03}
			{-1.379737489121883e-01, -2.014505003160525e-02, -4.930890763212645e-02, -4.175708463748645e-02, -8.786116438954630e-03, -3.442432691962465e-03, -7.598704841817018e-04, 8.026068677431266e-04}
			{-2.587087279991718e-02, 5.701142090634272e-02, 5.790812331686255e-02, 1.987571282661360e-02, 2.916379000697240e-02, 1.730586289644220e-02, 8.904327982716946e-03, 2.953744489298949e-03}
			{9.506880275223037e-02, 1.333278539171787e-01, 6.722654877061117e-03, -6.099614305051954e-02, -8.485768516314750e-02, -5.573160975478544e-02, -3.760088762926279e-02, -1.731942156885084e-02}
		0-2
			{9.983623134431234e-02, 1.134506115180162e-01, 7.824259641037837e-02, 7.682670960582915e-03, 2.053131029763712e-02, -6.098815159739697e-03, 3.917058436942458e-04, -4.734161690758204e-03}
			{-1.228672916510686e-01, -7.599330286759197e-02, -2.311430187530009e-02, -6.767986077432595e-02, -1.087990473361194e-02, -1.284726828765502e-02, -2.611037195391600e-03, -3.374926952573231e-03}
			{-4.656469308695029e-03, 1.586513109572187e-02, 8.333278037318943e-02, 2.136102306626503e-02, 3.748785775800362e-02, 2.704572552389158e-02, 1.124743929844900e-02, 6.968375785122319e-03}
			{1.325240528620149e-01, 1.361330701517603e-01, 3.481979981308755e-02, -1.569994326541503e-02, -1.186879192042787e-01, -9.280150529054347e-02, -5.691927161344403e-02, -2.318370403898291e-02}
		0-3
			{1.000606239861265e-01, 3.346124706781038e-01, 1.056154667196469e-01, 1.744090931086917e-01, 3.203692055464500e-02, 7.338923128351309e-02, 8.779130257315665e-03, 1.591281024417547e-02}
			{-1.578062795852328e-01, -6.439702598296393e-03, -7.555906970148679e-02, -5.195473674068403e-03, -3.798621732265180e-02, 7.566515108521903e-03, -5.821991312750610e-03, 3.044597060396973e-03}
			{-2.015785802374867e-02, 1.016478484644785e-01, 1.198283783568307e-03, 7.523229728094705e-02, -1.826342787968944e-02, 3.749961417313134e-02, -3.188213400990724e-03, 8.896654477539526e-03}
			{4.484157597238411e-03, 3.627744192237704e-01, -1.093161824970984e-01, 2.107792313066520e-01, -1.141079984486825e-01, 5.138130524018211e-02, -1.820313248432023e-02, 8.525033254150280e-03}
		1-0
			{5.291979569411975e-02, 3.725216618934493e-02, 3.779782618266925e-02, 2.117659623049896e-02, 1.290197041860937e-02, 7.278438822364941e-03, 3.238533303407621e-03, 9.782012569961322e-04}
			{-1.451645682700328e-01, -6.504213789530570e-02, -2.770139940230797e-02, -3.435826958573038e-02, -1.915320584328474e-03, 4.003365152492397e-03, -3.519958252237501e-04, 5.128975092976273e-03}
			{-2.389759542926557e-01, -8.007480406307996e-02, -1.961069217593797e-02, -4.859342314766477e-02, 7.888748223968161e-03, 1.148248227730506e-02, 1.235492330504061e-03, 1.118572568344376e-02}
			{-1.694806505109755e-01, -2.352628029195423e-01, 1.587111240192444e-02, 7.398125234066652e-02, 9.551862252702727e-02, 9.051112214890701e-02, 4.188196159221123e-02, 3.093671492634369e-02}
		1-1
			{-3.413667420991921e-02, -4.356954013939999e-02, -2.491003566685058e-02, -2.185319615812805e-02, -9.463998303174945e-03, -7.613223376736355e-03, -1.938708675298441e-03, -1.057261093569520e-03}
			{8.437841431611597e-02, 1.294843241690851e-02, 3.360601446466068e-03, 9.199209376768132e-03, -2.405802397004355e-03, -2.102938433134070e-03, -3.127169121250344e-03, -1.072016406071914e-03}
			{1.151387111205407e-01, -5.026534195870736e-02, -2.731487914782000e-02, -2.286478821803685e-02, -2.619320862419930e-02, -2.206714247993892e-02, -1.211082277369469e-02, -6.331777242281294e-03}
			{-2.297908416811678e-02, 1.738578546491290e-02, -7.288358226995142e-02, -2.469211234401390e-02, -2.935896576846876e-02, -1.956982467662395e-02, -9.869885160398656e-03, -4.792792312210145e-03}
		1-2
			{-3.402765927556296e-02, -1.003688558201547e-01, -2.686672328872871e-02, -5.164038560989036e-02, -7.104444248532955e-03, -1.416393065891131e-02, -8.940787754184681e-04, -1.716982024445538e-03}
			{9.302007791826311e-02, 2.932202873086883e-02, 2.020970959451674e-02, 7.531650466856007e-03, 1.382322292123195e-02, -1.889210775570584e-03, 6.116006344477630e-03, -6.270352975028453e-04}
			{1.260411154225399e-01, -1.712514107553196e-02, 4.507322286951776e-03, -2.293863175409873e-02, 5.519279883411456e-03, -2.892643048511072e-02, 5.110804567109593e-03, -7.706483524441732e-03}
			{-1.195939540780550e-01, 6.468709207302679e-02, -8.763309103606531e-02, 5.299497227257956e-02, 6.512706348127636e-02, 6.796874948012679e-03, -2.964672937160377e-03, 1.818717775936665e-02}
		1-3
			{-5.631382565600796e-02, -6.401125184578851e-02, -6.262411592363613e-02, -3.748545133042894e-02, -2.186773379025347e-02, -1.923269919863506e-02, -3.157937618465487e-03, -4.717081317643461e-03}
			{3.364384008420259e-02, 2.594598321954507e-01, -5.565119549487323e-02, 1.456432701250907e-01, -2.630974970055559e-02, 5.768740129112009e-02, -7.596644341531777e-03, 1.172029048718129e-02}
			{1.611169680684388e-01, 1.084685550789101e-01, 8.931123561149192e-02, 5.356061022279787e-02, 3.662255652468644e-02, 3.346470487628597e-02, 2.983307402910149e-03, 9.679390217816801e-03}
			{-1.644464512161835e-01, 1.687409115886022e-02, 6.594560702755160e-02, 5.312582252149690e-02, 1.659817055707109e-01, 6.464063760927362e-02, 5.992119987936551e-02, 1.437871153065737e-02}
		2-0
			{-5.236376008145903e-02, -5.394947729536430e-02, -5.106729941734481e-02, -2.766149361017423e-02, -2.052401664702503e-02, -1.115955892844730e-02, -4.249181669090405e-03, -1.881552252118879e-03}
			{-1.067150818194390e-01, -1.314719834310786e-01, -1.073389719373696e-01, -8.042893701663310e-02, -4.474383607497107e-02, -3.094214449344105e-02, -9.688554895271826e-03, -5.609908499105979e-03}
			{6.030257696590455e-01, 8.767595587890817e-02, 1.212619063323002e-01, -1.458375101560274e-01, 1.702159739148215e-02, -1.329474762392511e-01, -1.478300421112607e-02, -4.761676315196777e-02}
			{-6.713966869903806e-02, -8.944461288630490e-03, -6.403805196892128e-02, 1.577620356594716e-01, 1.046336553135100e-01, 1.495647522212603e-01, 5.761943554016020e-02, 3.361210350848853e-02}
		2-1
			{4.928485305773916e-02, 1.714042694364394e-01, 5.288504956859543e-02, 1.041389873527418e-01, 1.622606358358384e-02, 4.662099324892283e-02, 2.139419566734873e-03, 1.141418463171680e-02}
			{1.313334420579871e-01, 1.947388838423846e-01, 1.391433074984362e-01, 9.972544176440123e-02, 4.825252256222745e-02, 3.903415847038716e-02, 7.958403842957954e-03, 9.346923482658651e-03}
			{-1.458987434952456e-01, 5.597087788303383e-02, 1.725946633774854e-01, -8.431841889441545e-02, 2.535336387608641e-03, -9.056900502169442e-02, -3.744029490963475e-03, -2.888333288040925e-02}
			{-7.633996706687951e-02, 4.257616562959420e-02, -9.046673252449206e-02, -6.804693699419306e-02, -1.087661233592148e-01, -2.264282620655209e-02, -2.062115645092732e-03, -2.054220590225042e-02}
		2-2
			{7.498387560969363e-02, 1.656972899547122e-02, 1.119824395276747e-01, -1.165623449621181e-02, 4.791387656965021e-02, -1.173780679453640e-02, 9.506048012873540e-03, -3.176521019694874e-03}
			{3.859664574306013e-02, 1.188341816102621e-01, 3.152301690907006e-02, 4.007270714065108e-02, 1.526192425848126e-02, -5.295395828792219e-03, 3.704979284568728e-03, -8.538536933155145e-03}
			{-2.898646261472804e-01, -1.041190571463108e-01, 1.350142192089090e-01, 1.000605378842599e-01, 6.493575069843827e-02, 6.758951420919433e-02, -1.176341787130700e-02, -2.145468269958047e-04}
			{-9.206483241677278e-02, 3.841214642408998e-02, 3.809416476504827e-03, -1.319353239571457e-02, 8.711089017038364e-03, 4.904544286056709e-03, -1.893249413897668e-04, 7.198070161841087e-03}
		2-3
			{1.442817188587067e-01, 1.061720979171301e-02, 2.087824867053276e-01, 4.980058630096184e-03, 8.277942908142245e-02, 1.599713926321632e-02, 1.630659053384330e-02, 7.881028351086406e-03}
			{1.496717527911672e-01, 3.097132953445427e-01, 1.820795824694375e-01, 1.772651951397780e-01, 8.075188862716284e-02, 7.686751337555701e-02, 2.066612311013697e-02, 2.028456318508016e-02}
			{-2.558929931735856e-01, -2.241008025757989e-02, 7.166425804970886e-02, 5.397826596938735e-02, 1.607338120993650e-01, 4.504240783340624e-02, 5.947798550403927e-02, 6.262322540581480e-02}
			{-9.577927948573106e-02, 5.268075297064068e-02, -4.099463430765710e-02, -1.574531198127292e-01, -9.521091819890486e-02, -7.664675486858988e-02, -1.136385190811216e-01, 3.274654138490033e-02}
		3-0
			{1.593509878967099e-01, 2.932641522600546e-01, 1.011422477746296e-01, 1.735843406595092e-01, 2.602745874574541e-02, 7.110252063115503e-02, 5.759599214055694e-03, 1.560146349922332e-02}
			{-5.083629296077001e-02, 6.215878871656100e-02, -3.386040254524952e-02, 4.504074369910538e-02, -1.566362670095820e-02, 1.955759072662681e-02, -1.593850260729733e-03, 4.791946922216589e-03}
			{6.942005271640420e-02, 3.681787399216411e-02, 6.676267637914063e-02, 7.038806235792094e-02, 2.124450192027076e-02, 2.498542122031731e-02, 5.447435885003281e-03, 5.469886556010362e-03}
			{-9.885364498512578e-02, 1.034608307902796e-01, -1.773148973274058e-01, 1.064094628442525e-01, 5.736188230212264e-03, 5.092176195946881e-02, 2.047194437059515e-03, 9.598185842552986e-03}
		3-1
			{1.112249384157620e-02, -9.309687350430668e-02, 7.629133326634673e-02, -5.668140369937376e-02, 4.515505134280178e-02, -1.761713342631574e-02, 1.083695280586072e-02, -3.308916964814958e-03}
			{1.088554736058109e-01, 2.053766091134064e-01, 9.397708492745065e-02, 1.079371126841968e-01, 4.349088303926188e-02, 4.168189379501579e-02, 9.912510200828551e-03, 8.828583649002320e-03}
			{-3.398742940452960e-02, -6.553026409892281e-02, 4.043394548128573e-02, -8.185065640849634e-02, 4.707083379534766e-02, -3.552088938631061e-02, 1.540035840536544e-02, -6.299082187516145e-03}
			{1.079483915333598e-01, 1.737136119989591e-01, -1.867766342375479e-02, -6.623026825016116e-02, -1.147106267326423e-01, -7.144654669660053e-02, -5.061118438953140e-02, -1.380734035065843e-02}
		3-2
			{-2.731577168144468e-02, -5.130700698685135e-02, -4.710973760738168e-03, -4.075895148543598e-02, 8.955890736306293e-03, -1.743940840521893e-02, 2.779697657390175e-03, -3.489375454701705e-03}
			{1.814111891526360e-01, 1.490153677526739e-01, 1.923016670918606e-01, 1.072246752025609e-01, 7.117654652055265e-02, 6.824360762512537e-02, 1.232929940747512e-02, 2.031933950772485e-02}
			{-5.542556305539449e-02, -3.003688351685207e-02, 8.451583695757700e-03, -3.878146121285032e-02, 6.432583401614480e-03, -1.922009712865138e-03, -3.909195268971217e-03, 2.942088446323504e-03}
			{-1.531460979225369e-01, -4.831320930236843e-02, -2.401176000249631e-02, 6.139670179410564e-02, 1.047019397242094e-01, 3.786973858055467e-02, 1.216742860650753e-01, -4.366084718834885e-02}
		3-3
			{5.246406033077967e-02, -9.848347033070458e-02, 7.119101229197983e-02, -1.169840877018745e-02, -8.350959476548862e-04, 2.639098284389929e-02, -8.057695203308679e-03, 8.146049739356622e-03}
			{2.150440892592243e-01, 2.471920289212150e-01, 1.705869460532509e-01, 2.123366864324175e-01, -1.268060943721671e-02, 1.390724512246481e-01, -2.433464066731269e-02, 3.414698249706529e-02}
			{-2.800334693052903e-02, -1.762251455704385e-02, 1.355608009458867e-02, 4.463059774164891e-02, -5.192601477295125e-02, 6.295128069246352e-02, -2.124678640418268e-02, 1.437729528768517e-02}
			{-1.594446014881683e-02, 9.679744348637484e-02, 1.030824626365591e-01, 2.446562552090728e-02, 3.106656913137459e-02, 3.804078978395004e-02, -3.007186575059431e-03, 1.298325673166037e-02}
alpha_moments_count = 350
alpha_index_basic_count = 130
alpha_index_basic = {{0, 0, 0, 0}, {0, 1, 0, 0}, {0, 0, 1, 0}, {0, 0, 0, 1}, {0, 2, 0, 0}, {0, 1, 1, 0}, {0, 1, 0, 1}, {0, 0, 2, 0}, {0, 0, 1, 1}, {0, 0, 0, 2}, {0, 3, 0, 0}, {0, 2, 1, 0}, {0, 2, 0, 1}, {0, 1, 2, 0}, {0, 1, 1, 1}, {0, 1, 0, 2}, {0, 0, 3, 0}, {0, 0, 2, 1}, {0, 0, 1, 2}, {0, 0, 0, 3}, {0, 4, 0, 0}, {0, 3, 1, 0}, {0, 3, 0, 1}, {0, 2, 2, 0}, {0, 2, 1, 1}, {0, 2, 0, 2}, {0, 1, 3, 0}, {0, 1, 2, 1}, {0, 1, 1, 2}, {0, 1, 0, 3}, {0, 0, 4, 0}, {0, 0, 3, 1}, {0, 0, 2, 2}, {0, 0, 1, 3}, {0, 0, 0, 4}, {0, 5, 0, 0}, {0, 4, 1, 0}, {0, 4, 0, 1}, {0, 3, 2, 0}, {0, 3, 1, 1}, {0, 3, 0, 2}, {0, 2, 3, 0}, {0, 2, 2, 1}, {0, 2, 1, 2}, {0, 2, 0, 3}, {0, 1, 4, 0}, {0, 1, 3, 1}, {0, 1, 2, 2}, {0, 1, 1, 3}, {0, 1, 0, 4}, {0, 0, 5, 0}, {0, 0, 4, 1}, {0, 0, 3, 2}, {0, 0, 2, 3}, {0, 0, 1, 4}, {0, 0, 0, 5}, {0, 6, 0, 0}, {0, 5, 1, 0}, {0, 5, 0, 1}, {0, 4, 2, 0}, {0, 4, 1, 1}, {0, 4, 0, 2}, {0, 3, 3, 0}, {0, 3, 2, 1}, {0, 3, 1, 2}, {0, 3, 0, 3}, {0, 2, 4, 0}, {0, 2, 3, 1}, {0, 2, 2, 2}, {0, 2, 1, 3}, {0, 2, 0, 4}, {0, 1, 5, 0}, {0, 1, 4, 1}, {0, 1, 3, 2}, {0, 1, 2, 3}, {0, 1, 1, 4}, {0, 1, 0, 5}, {0, 0, 6, 0}, {0, 0, 5, 1}, {0, 0, 4, 2}, {0, 0, 3, 3}, {0, 0, 2, 4}, {0, 0, 1, 5}, {0, 0, 0, 6}, {1, 0, 0, 0}, {1, 1, 0, 0}, {1, 0, 1, 0}, {1, 0, 0, 1}, {1, 2, 0, 0}, {1, 1, 1, 0}, {1, 1, 0, 1}, {1, 0, 2, 0}, {1, 0, 1, 1}, {1, 0, 0, 2}, {1, 3, 0, 0}, {1, 2, 1, 0}, {1, 2, 0, 1}, {1, 1, 2, 0}, {1, 1, 1, 1}, {1, 1, 0, 2}, {1, 0, 3, 0}, {1, 0, 2, 1}, {1, 0, 1, 2}, {1, 0, 0, 3}, {1, 4, 0, 0}, {1, 3, 1, 0}, {1, 3, 0, 1}, {1, 2, 2, 0}, {1, 2, 1, 1}, {1, 2, 0, 2}, {1, 1, 3, 0}, {1, 1, 2, 1}, {1, 1, 1, 2}, {1, 1, 0, 3}, {1, 0, 4, 0}, {1, 0, 3, 1}, {1, 0, 2, 2}, {1, 0, 1, 3}, {1, 0, 0, 4}, {2, 0, 0, 0}, {2, 1, 0, 0}, {2, 0, 1, 0}, {2, 0, 0, 1}, {2, 2, 0, 0}, {2, 1, 1, 0}, {2, 1, 0, 1}, {2, 0, 2, 0}, {2, 0, 1, 1}, {2, 0, 0, 2}, {3, 0, 0, 0}}
alpha_index_times_count = 969
alpha_index_times = {{0, 0, 1, 130}, {1, 1, 1, 131}, {2, 2, 1, 131}, {3, 3, 1, 131}, {1, 4, 1, 132}, {2, 5, 1, 132}, {3, 6, 1, 132}, {1, 5, 1, 133}, {2, 7, 1, 133}, {3, 8, 1, 133}, {1, 6, 1, 134}, {2, 8, 1, 134}, {3, 9, 1, 134}, {1, 10, 1, 135}, {2, 11, 1, 135}, {3, 12, 1, 135}, {1, 11, 1, 136}, {2, 13, 1, 136}, {3, 14, 1, 136}, {1, 12, 1, 137}, {2, 14, 1, 137}, {3, 15, 1, 137}, {1, 13, 1, 138}, {2, 16, 1, 138}, {3, 17, 1, 138}, {1, 14, 1, 139}, {2, 17, 1, 139}, {3, 18, 1, 139}, {1, 15, 1, 140}, {2, 18, 1, 140}, {3, 19, 1, 140}, {4, 4, 1, 141}, {5, 5, 1, 141}, {6, 6, 1, 141}, {4, 5, 1, 142}, {5, 7, 1, 142}, {6, 8, 1, 142}, {4, 6, 1, 143}, {5, 8, 1, 143}, {6, 9, 1, 143}, {5, 5, 1, 144}, {7, 7, 1, 144}, {8, 8, 1, 144}, {5, 6, 1, 145}, {7, 8, 1, 145}, {8, 9, 1, 145}, {6, 6, 1, 146}, {8, 8, 1, 146}, {9, 9, 1, 146}, {4, 10, 1, 147}, {5, 11, 1, 147}, {6, 12, 1, 147}, {4, 11, 1, 148}, {5, 13, 1, 148}, {6, 14, 1, 148}, {4, 12, 1, 149}, {5, 14, 1, 149}, {6, 15, 1, 149}, {4, 13, 1, 150}, {5, 16, 1, 150}, {6, 17, 1, 150}, {4, 14, 1, 151}, {5, 17, 1, 151}, {6, 18, 1, 151}, {4, 15, 1, 152}, {5, 18, 1, 152}, {6, 19, 1, 152}, {5, 10, 1, 153}, {7, 11, 1, 153}, {8, 12, 1, 153}, {5, 11, 1, 154}, {7, 13, 1, 154}, {8, 14, 1, 154}, {5, 12, 1, 155}, {7, 14, 1, 155}, {8, 15, 1, 155}, {5, 13, 1, 156}, {7, 16, 1, 156}, {8, 17, 1, 156}, {5, 14, 1, 157}, {7, 17, 1, 157}, {8, 18, 1, 157}, {5, 15, 1, 158}, {7, 18, 1, 158}, {8, 19, 1, 158}, {6, 10, 1, 159}, {8, 11, 1, 159}, {9, 12, 1, 159}, {6, 11, 1, 160}, {8, 13, 1, 160}, {9, 14, 1, 160}, {6, 12, 1, 161}, {8, 14, 1, 161}, {9, 15, 1, 161}, {6, 13, 1, 162}, {8, 16, 1, 162}, {9, 17, 1, 162}, {6, 14, 1, 163}, {8, 17, 1, 163}, {9, 18, 1, 163}, {6, 15, 1, 164}, {8, 18, 1, 164}, {9, 19, 1, 164}, {4, 4, 1, 165}, {5, 5, 2, 165}, {6, 6, 2, 165}, {7, 7, 1, 165}, {8, 8, 2, 165}, {9, 9, 1, 165}, {4, 10, 1, 166}, {5, 11, 2, 166}, {6, 12, 2, 166}, {7, 13, 1, 166}, {8, 14, 2, 166}, {9, 15, 1, 166}, {4, 11, 1, 167}, {5, 13, 2, 167}, {6, 14, 2, 167}, {7, 16, 1, 167}, {8, 17, 2, 167}, {9, 18, 1, 167}, {4, 12, 1, 168}, {5, 14, 2, 168}, {6, 15, 2, 168}, {7, 17, 1, 168}, {8, 18, 2, 168}, {9, 19, 1, 168}, {4, 20, 1, 169}, {5, 21, 2, 169}, {6, 22, 2, 169}, {7, 23, 1, 169}, {8, 24, 2, 169}, {9, 25, 1, 169}, {4, 21, 1, 170}, {5, 23, 2, 170}, {6, 24, 2, 170}, {7, 26, 1, 170}, {8, 27, 2, 170}, {9, 28, 1, 170}, {4, 22, 1, 171}, {5, 24, 2, 171}, {6, 25, 2, 171}, {7, 27, 1, 171}, {8, 28, 2, 171}, {9, 29, 1, 171}, {4, 23, 1, 172}, {5, 26, 2, 172}, {6, 27, 2, 172}, {7, 30, 1, 172}, {8, 31, 2, 172}, {9, 32, 1, 172}, {4, 24, 1, 173}, {5, 27, 2, 173}, {6, 28, 2, 173}, {7, 31, 1, 173}, {8, 32, 2, 173}, {9, 33, 1, 173}, {4, 25, 1, 174}, {5, 28, 2, 174}, {6, 29, 2, 174}, {7, 32, 1, 174}, {8, 33, 2, 174}, {9, 34, 1, 174}, {10, 10, 1, 175}, {11, 11, 2, 175}, {12, 12, 2, 175}, {13, 13, 1, 175}, {14, 14, 2, 175}, {15, 15, 1, 175}, {10, 11, 1, 176}, {11, 13, 2, 176}, {12, 14, 2, 176}, {13, 16, 1, 176}, {14, 17, 2, 176}, {15, 18, 1, 176}, {10, 12, 1, 177}, {11, 14, 2, 177}, {12, 15, 2, 177}, {13, 17, 1, 177}, {14, 18, 2, 177}, {15, 19, 1, 177}, {11, 11, 1, 178}, {13, 13, 2, 178}, {14, 14, 2, 178}, {16, 16, 1, 178}, {17, 17, 2, 178}, {18, 18, 1, 178}, {11, 12, 1, 179}, {13, 14, 2, 179}, {14, 15, 2, 179}, {16, 17, 1, 179}, {17, 18, 2, 179}, {18, 19, 1, 179}, {12, 12, 1, 180}, {14, 14, 2, 180}, {15, 15, 2, 180}, {17, 17, 1, 180}, {18, 18, 2, 180}, {19, 19, 1, 180}, {10, 20, 1, 181}, {11, 21, 2, 181}, {12, 22, 2, 181}, {13, 23, 1, 181}, {14, 24, 2, 181}, {15, 25, 1, 181}, {10, 21, 1, 182}, {11, 23, 2, 182}, {12, 24, 2, 182}, {13, 26, 1, 182}, {14, 27, 2, 182}, {15, 28, 1, 182}, {10, 22, 1, 183}, {11, 24, 2, 183}, {12, 25, 2, 183}, {13, 27, 1, 183}, {14, 28, 2, 183}, {15, 29, 1, 183}, {10, 23, 1, 184}, {11, 26, 2, 184}, {12, 27, 2, 184}, {13, 30, 1, 184}, {14, 31, 2, 184}, {15, 32, 1, 184}, {10, 24, 1, 185}, {11, 27, 2, 185}, {12, 28, 2, 185}, {13, 31, 1, 185}, {14, 32, 2, 185}, {15, 33, 1, 185}, {10, 25, 1, 186}, {11, 28, 2, 186}, {12, 29, 2, 186}, {13, 32, 1, 186}, {14, 33, 2, 186}, {15, 34, 1, 186}, {11, 20, 1, 187}, {13, 21, 2, 187}, {14, 22, 2, 187}, {16, 23, 1, 187}, {17, 24, 2, 187}, {18, 25, 1, 187}, {11, 21, 1, 188}, {13, 23, 2, 188}, {14, 24, 2, 188}, {16, 26, 1, 188}, {17, 27, 2, 188}, {18, 28, 1, 188}, {11, 22, 1, 189}, {13, 24, 2, 189}, {14, 25, 2, 189}, {16, 27, 1, 189}, {17, 28, 2, 189}, {18, 29, 1, 189}, {11, 23, 1, 190}, {13, 26, 2, 190}, {14, 27, 2, 190}, {16, 30, 1, 190}, {17, 31, 2, 190}, {18, 32, 1, 190}, {11, 24, 1, 191}, {13, 27, 2, 191}, {14, 28, 2, 191}, {16, 31, 1, 191}, {17, 32, 2, 191}, {18, 33, 1, 191}, {11, 25, 1, 192}, {13, 28, 2, 192}, {14, 29, 2, 192}, {16, 32, 1, 192}, {17, 33, 2, 192}, {18, 34, 1, 192}, {12, 20, 1, 193}, {14, 21, 2, 193}, {15, 22, 2, 193}, {17, 23, 1, 193}, {18, 24, 2, 193}, {19, 25, 1, 193}, {12, 21, 1, 194}, {14, 23, 2, 194}, {15, 24, 2, 194}, {17, 26, 1, 194}, {18, 27, 2, 194}, {19, 28, 1, 194}, {12, 22, 1, 195}, {14, 24, 2, 195}, {15, 25, 2, 195}, {17, 27, 1, 195}, {18, 28, 2, 195}, {19, 29, 1, 195}, {12, 23, 1, 196}, {14, 26, 2, 196}, {15, 27, 2, 196}, {17, 30, 1, 196}, {18, 31, 2, 196}, {19, 32, 1, 196}, {12, 24, 1, 197}, {14, 27, 2, 197}, {15, 28, 2, 197}, {17, 31, 1, 197}, {18, 32, 2, 197}, {19, 33, 1, 197}, {12, 25, 1, 198}, {14, 28, 2, 198}, {15, 29, 2, 198}, {17, 32, 1, 198}, {18, 33, 2, 198}, {19, 34, 1, 198}, {10, 10, 1, 199}, {11, 11, 3, 199}, {12, 12, 3, 199}, {13, 13, 3, 199}, {14, 14, 6, 199}, {15, 15, 3, 199}, {16, 16, 1, 199}, {17, 17, 3, 199}, {18, 18, 3, 199}, {19, 19, 1, 199}, {10, 20, 1, 200}, {11, 21, 3, 200}, {12, 22, 3, 200}, {13, 23, 3, 200}, {14, 24, 6, 200}, {15, 25, 3, 200}, {16, 26, 1, 200}, {17, 27, 3, 200}, {18, 28, 3, 200}, {19, 29, 1, 200}, {10, 21, 1, 201}, {11, 23, 3, 201}, {12, 24, 3, 201}, {13, 26, 3, 201}, {14, 27, 6, 201}, {15, 28, 3, 201}, {16, 30, 1, 201}, {17, 31, 3, 201}, {18, 32, 3, 201}, {19, 33, 1, 201}, {10, 22, 1, 202}, {11, 24, 3, 202}, {12, 25, 3, 202}, {13, 27, 3, 202}, {14, 28, 6, 202}, {15, 29, 3, 202}, {16, 31, 1, 202}, {17, 32, 3, 202}, {18, 33, 3, 202}, {19, 34, 1, 202}, {10, 35, 1, 203}, {11, 36, 3, 203}, {12, 37, 3, 203}, {13, 38, 3, 203}, {14, 39, 6, 203}, {15, 40, 3, 203}, {16, 41, 1, 203}, {17, 42, 3, 203}, {18, 43, 3, 203}, {19, 44, 1, 203}, {10, 36, 1, 204}, {11, 38, 3, 204}, {12, 39, 3, 204}, {13, 41, 3, 204}, {14, 42, 6, 204}, {15, 43, 3, 204}, {16, 45, 1, 204}, {17, 46, 3, 204}, {18, 47, 3, 204}, {19, 48, 1, 204}, {10, 37, 1, 205}, {11, 39, 3, 205}, {12, 40, 3, 205}, {13, 42, 3, 205}, {14, 43, 6, 205}, {15, 44, 3, 205}, {16, 46, 1, 205}, {17, 47, 3, 205}, {18, 48, 3, 205}, {19, 49, 1, 205}, {10, 38, 1, 206}, {11, 41, 3, 206}, {12, 42, 3, 206}, {13, 45, 3, 206}, {14, 46, 6, 206}, {15, 47, 3, 206}, {16, 50, 1, 206}, {17, 51, 3, 206}, {18, 52, 3, 206}, {19, 53, 1, 206}, {10, 39, 1, 207}, {11, 42, 3, 207}, {12, 43, 3, 207}, {13, 46, 3, 207}, {14, 47, 6, 207}, {15, 48, 3, 207}, {16, 51, 1, 207}, {17, 52, 3, 207}, {18, 53, 3, 207}, {19, 54, 1, 207}, {10, 40, 1, 208}, {11, 43, 3, 208}, {12, 44, 3, 208}, {13, 47, 3, 208}, {14, 48, 6, 208}, {15, 49, 3, 208}, {16, 52, 1, 208}, {17, 53, 3, 208}, {18, 54, 3, 208}, {19, 55, 1, 208}, {20, 20, 1, 209}, {21, 21, 3, 209}, {22, 22, 3, 209}, {23, 23, 3, 209}, {24, 24, 6, 209}, {25, 25, 3, 209}, {26, 26, 1, 209}, {27, 27, 3, 209}, {28, 28, 3, 209}, {29, 29, 1, 209}, {20, 21, 1, 210}, {21, 23, 3, 210}, {22, 24, 3, 210}, {23, 26, 3, 210}, {24, 27, 6, 210}, {25, 28, 3, 210}, {26, 30, 1, 210}, {27, 31, 3, 210}, {28, 32, 3, 210}, {29, 33, 1, 210}, {20, 22, 1, 211}, {21, 24, 3, 211}, {22, 25, 3, 211}, {23, 27, 3, 211}, {24, 28, 6, 211}, {25, 29, 3, 211}, {26, 31, 1, 211}, {27, 32, 3, 211}, {28, 33, 3, 211}, {29, 34, 1, 211}, {21, 21, 1, 212}, {23, 23, 3, 212}, {24, 24, 3, 212}, {26, 26, 3, 212}, {27, 27, 6, 212}, {28, 28, 3, 212}, {30, 30, 1, 212}, {31, 31, 3, 212}, {32, 32, 3, 212}, {33, 33, 1, 212}, {21, 22, 1, 213}, {23, 24, 3, 213}, {24, 25, 3, 213}, {26, 27, 3, 213}, {27, 28, 6, 213}, {28, 29, 3, 213}, {30, 31, 1, 213}, {31, 32, 3, 213}, {32, 33, 3, 213}, {33, 34, 1, 213}, {22, 22, 1, 214}, {24, 24, 3, 214}, {25, 25, 3, 214}, {27, 27, 3, 214}, {28, 28, 6, 214}, {29, 29, 3, 214}, {31, 31, 1, 214}, {32, 32, 3, 214}, {33, 33, 3, 214}, {34, 34, 1, 214}, {20, 20, 1, 215}, {21, 21, 4, 215}, {22, 22, 4, 215}, {23, 23, 6, 215}, {24, 24, 12, 215}, {25, 25, 6, 215}, {26, 26, 4, 215}, {27, 27, 12, 215}, {28, 28, 12, 215}, {29, 29, 4, 215}, {30, 30, 1, 215}, {31, 31, 4, 215}, {32, 32, 6, 215}, {33, 33, 4, 215}, {34, 34, 1, 215}, {20, 35, 1, 216}, {21, 36, 4, 216}, {22, 37, 4, 216}, {23, 38, 6, 216}, {24, 39, 12, 216}, {25, 40, 6, 216}, {26, 41, 4, 216}, {27, 42, 12, 216}, {28, 43, 12, 216}, {29, 44, 4, 216}, {30, 45, 1, 216}, {31, 46, 4, 216}, {32, 47, 6, 216}, {33, 48, 4, 216}, {34, 49, 1, 216}, {20, 36, 1, 217}, {21, 38, 4, 217}, {22, 39, 4, 217}, {23, 41, 6, 217}, {24, 42, 12, 217}, {25, 43, 6, 217}, {26, 45, 4, 217}, {27, 46, 12, 217}, {28, 47, 12, 217}, {29, 48, 4, 217}, {30, 50, 1, 217}, {31, 51, 4, 217}, {32, 52, 6, 217}, {33, 53, 4, 217}, {34, 54, 1, 217}, {20, 37, 1, 218}, {21, 39, 4, 218}, {22, 40, 4, 218}, {23, 42, 6, 218}, {24, 43, 12, 218}, {25, 44, 6, 218}, {26, 46, 4, 218}, {27, 47, 12, 218}, {28, 48, 12, 218}, {29, 49, 4, 218}, {30, 51, 1, 218}, {31, 52, 4, 218}, {32, 53, 6, 218}, {33, 54, 4, 218}, {34, 55, 1, 218}, {35, 35, 1, 219}, {36, 36, 5, 219}, {37, 37, 5, 219}, {38, 38, 10, 219}, {39, 39, 20, 219}, {40, 40, 10, 219}, {41, 41, 10, 219}, {42, 42, 30, 219}, {43, 43, 30, 219}, {44, 44, 10, 219}, {45, 45, 5, 219}, {46, 46, 20, 219}, {47, 47, 30, 219}, {48, 48, 20, 219}, {49, 49, 5, 219}, {50, 50, 1, 219}, {51, 51, 5, 219}, {52, 52, 10, 219}, {53, 53, 10, 219}, {54, 54, 5, 219}, {55, 55, 1, 219}, {56, 56, 1, 220}, {57, 57, 6, 220}, {58, 58, 6, 220}, {59, 59, 15, 220}, {60, 60, 30, 220}, {61, 61, 15, 220}, {62, 62, 20, 220}, {63, 63, 60, 220}, {64, 64, 60, 220}, {65, 65, 20, 220}, {66, 66, 15, 220}, {67, 67, 60, 220}, {68, 68, 90, 220}, {69, 69, 60, 220}, {70, 70, 15, 220}, {71, 71, 6, 220}, {72, 72, 30, 220}, {73, 73, 60, 220}, {74, 74, 60, 220}, {75, 75, 30, 220}, {76, 76, 6, 220}, {77, 77, 1, 220}, {78, 78, 6, 220}, {79, 79, 15, 220}, {80, 80, 20, 220}, {81, 81, 15, 220}, {82, 82, 6, 220}, {83, 83, 1, 220}, {0, 84, 1, 221}, {1, 85, 1, 222}, {2, 86, 1, 222}, {3, 87, 1, 222}, {1, 88, 1, 223}, {2, 89, 1, 223}, {3, 90, 1, 223}, {1, 89, 1, 224}, {2, 91, 1, 224}, {3, 92, 1, 224}, {1, 90, 1, 225}, {2, 92, 1, 225}, {3, 93, 1, 225}, {4, 85, 1, 226}, {5, 86, 1, 226}, {6, 87, 1, 226}, {5, 85, 1, 227}, {7, 86, 1, 227}, {8, 87, 1, 227}, {6, 85, 1, 228}, {8, 86, 1, 228}, {9, 87, 1, 228}, {4, 88, 1, 229}, {5, 89, 1, 229}, {6, 90, 1, 229}, {4, 89, 1, 230}, {5, 91, 1, 230}, {6, 92, 1, 230}, {4, 90, 1, 231}, {5, 92, 1, 231}, {6, 93, 1, 231}, {5, 88, 1, 232}, {7, 89, 1, 232}, {8, 90, 1, 232}, {5, 89, 1, 233}, {7, 91, 1, 233}, {8, 92, 1, 233}, {5, 90, 1, 234}, {7, 92, 1, 234}, {8, 93, 1, 234}, {6, 88, 1, 235}, {8, 89, 1, 235}, {9, 90, 1, 235}, {6, 89, 1, 236}, {8, 91, 1, 236}, {9, 92, 1, 236}, {6, 90, 1, 237}, {8, 92, 1, 237}, {9, 93, 1, 237}, {4, 88, 1, 238}, {5, 89, 2, 238}, {6, 90, 2, 238}, {7, 91, 1, 238}, {8, 92, 2, 238}, {9, 93, 1, 238}, {4, 94, 1, 239}, {5, 95, 2, 239}, {6, 96, 2, 239}, {7, 97, 1, 239}, {8, 98, 2, 239}, {9, 99, 1, 239}, {4, 95, 1, 240}, {5, 97, 2, 240}, {6, 98, 2, 240}, {7, 100, 1, 240}, {8, 101, 2, 240}, {9, 102, 1, 240}, {4, 96, 1, 241}, {5, 98, 2, 241}, {6, 99, 2, 241}, {7, 101, 1, 241}, {8, 102, 2, 241}, {9, 103, 1, 241}, {10, 88, 1, 242}, {11, 89, 2, 242}, {12, 90, 2, 242}, {13, 91, 1, 242}, {14, 92, 2, 242}, {15, 93, 1, 242}, {11, 88, 1, 243}, {13, 89, 2, 243}, {14, 90, 2, 243}, {16, 91, 1, 243}, {17, 92, 2, 243}, {18, 93, 1, 243}, {12, 88, 1, 244}, {14, 89, 2, 244}, {15, 90, 2, 244}, {17, 91, 1, 244}, {18, 92, 2, 244}, {19, 93, 1, 244}, {10, 94, 1, 245}, {11, 95, 3, 245}, {12, 96, 3, 245}, {13, 97, 3, 245}, {14, 98, 6, 245}, {15, 99, 3, 245}, {16, 100, 1, 245}, {17, 101, 3, 245}, {18, 102, 3, 245}, {19, 103, 1, 245}, {20, 104, 1, 246}, {21, 105, 4, 246}, {22, 106, 4, 246}, {23, 107, 6, 246}, {24, 108, 12, 246}, {25, 109, 6, 246}, {26, 110, 4, 246}, {27, 111, 12, 246}, {28, 112, 12, 246}, {29, 113, 4, 246}, {30, 114, 1, 246}, {31, 115, 4, 246}, {32, 116, 6, 246}, {33, 117, 4, 246}, {34, 118, 1, 246}, {0, 119, 1, 247}, {1, 120, 1, 248}, {2, 121, 1, 248}, {3, 122, 1, 248}, {4, 123, 1, 249}, {5, 124, 2, 249}, {6, 125, 2, 249}, {7, 126, 1, 249}, {8, 127, 2, 249}, {9, 128, 1, 249}, {0, 129, 1, 250}, {84, 84, 1, 251}, {85, 85, 1, 252}, {86, 86, 1, 252}, {87, 87, 1, 252}, {88, 88, 1, 253}, {89, 89, 2, 253}, {90, 90, 2, 253}, {91, 91, 1, 253}, {92, 92, 2, 253}, {93, 93, 1, 253}, {84, 119, 1, 254}, {0, 130, 1, 255}, {0, 131, 1, 256}, {0, 165, 1, 257}, {0, 199, 1, 258}, {0, 215, 1, 259}, {0, 219, 1, 260}, {1, 132, 1, 261}, {2, 133, 1, 261}, {3, 134, 1, 261}, {1, 135, 1, 262}, {2, 136, 1, 262}, {3, 137, 1, 262}, {1, 136, 1, 263}, {2, 138, 1, 263}, {3, 139, 1, 263}, {1, 137, 1, 264}, {2, 139, 1, 264}, {3, 140, 1, 264}, {1, 141, 1, 265}, {2, 142, 1, 265}, {3, 143, 1, 265}, {1, 142, 1, 266}, {2, 144, 1, 266}, {3, 145, 1, 266}, {1, 143, 1, 267}, {2, 145, 1, 267}, {3, 146, 1, 267}, {1, 166, 1, 268}, {2, 167, 1, 268}, {3, 168, 1, 268}, {1, 169, 1, 269}, {2, 170, 1, 269}, {3, 171, 1, 269}, {1, 170, 1, 270}, {2, 172, 1, 270}, {3, 173, 1, 270}, {1, 171, 1, 271}, {2, 173, 1, 271}, {3, 174, 1, 271}, {1, 175, 1, 272}, {2, 176, 1, 272}, {3, 177, 1, 272}, {1, 176, 1, 273}, {2, 178, 1, 273}, {3, 179, 1, 273}, {1, 177, 1, 274}, {2, 179, 1, 274}, {3, 180, 1, 274}, {1, 200, 1, 275}, {2, 201, 1, 275}, {3, 202, 1, 275}, {1, 216, 1, 276}, {2, 217, 1, 276}, {3, 218, 1, 276}, {4, 141, 1, 277}, {5, 142, 1, 277}, {6, 143, 1, 277}, {4, 142, 1, 278}, {5, 144, 1, 278}, {6, 145, 1, 278}, {4, 143, 1, 279}, {5, 145, 1, 279}, {6, 146, 1, 279}, {5, 141, 1, 280}, {7, 142, 1, 280}, {8, 143, 1, 280}, {5, 142, 1, 281}, {7, 144, 1, 281}, {8, 145, 1, 281}, {5, 143, 1, 282}, {7, 145, 1, 282}, {8, 146, 1, 282}, {6, 141, 1, 283}, {8, 142, 1, 283}, {9, 143, 1, 283}, {6, 142, 1, 284}, {8, 144, 1, 284}, {9, 145, 1, 284}, {6, 143, 1, 285}, {8, 145, 1, 285}, {9, 146, 1, 285}, {4, 166, 1, 286}, {5, 167, 1, 286}, {6, 168, 1, 286}, {5, 166, 1, 287}, {7, 167, 1, 287}, {8, 168, 1, 287}, {6, 166, 1, 288}, {8, 167, 1, 288}, {9, 168, 1, 288}, {4, 169, 1, 289}, {5, 170, 2, 289}, {6, 171, 2, 289}, {7, 172, 1, 289}, {8, 173, 2, 289}, {9, 174, 1, 289}, {4, 203, 1, 290}, {5, 204, 2, 290}, {6, 205, 2, 290}, {7, 206, 1, 290}, {8, 207, 2, 290}, {9, 208, 1, 290}, {4, 141, 1, 291}, {5, 142, 2, 291}, {6, 143, 2, 291}, {7, 144, 1, 291}, {8, 145, 2, 291}, {9, 146, 1, 291}, {4, 147, 1, 292}, {5, 148, 1, 292}, {5, 153, 1, 292}, {6, 149, 1, 292}, {6, 159, 1, 292}, {7, 154, 1, 292}, {8, 155, 1, 292}, {8, 160, 1, 292}, {9, 161, 1, 292}, {4, 148, 1, 293}, {5, 150, 1, 293}, {5, 154, 1, 293}, {6, 151, 1, 293}, {6, 160, 1, 293}, {7, 156, 1, 293}, {8, 157, 1, 293}, {8, 162, 1, 293}, {9, 163, 1, 293}, {4, 149, 1, 294}, {5, 151, 1, 294}, {5, 155, 1, 294}, {6, 152, 1, 294}, {6, 161, 1, 294}, {7, 157, 1, 294}, {8, 158, 1, 294}, {8, 163, 1, 294}, {9, 164, 1, 294}, {4, 175, 1, 295}, {5, 176, 2, 295}, {6, 177, 2, 295}, {7, 178, 1, 295}, {8, 179, 2, 295}, {9, 180, 1, 295}, {4, 209, 1, 296}, {5, 210, 2, 296}, {6, 211, 2, 296}, {7, 212, 1, 296}, {8, 213, 2, 296}, {9, 214, 1, 296}, {10, 181, 1, 297}, {11, 182, 2, 297}, {11, 187, 1, 297}, {12, 183, 2, 297}, {12, 193, 1, 297}, {13, 184, 1, 297}, {13, 188, 2, 297}, {14, 185, 2, 297}, {14, 189, 2, 297}, {14, 194, 2, 297}, {15, 186, 1, 297}, {15, 195, 2, 297}, {16, 190, 1, 297}, {17, 191, 2, 297}, {17, 196, 1, 297}, {18, 192, 1, 297}, {18, 197, 2, 297}, {19, 198, 1, 297}, {0, 221, 1, 298}, {0, 222, 1, 299}, {0, 238, 1, 300}, {0, 245, 1, 301}, {1, 223, 1, 302}, {2, 224, 1, 302}, {3, 225, 1, 302}, {1, 239, 1, 303}, {2, 240, 1, 303}, {3, 241, 1, 303}, {84, 131, 1, 304}, {1, 226, 1, 305}, {2, 227, 1, 305}, {3, 228, 1, 305}, {1, 242, 1, 306}, {2, 243, 1, 306}, {3, 244, 1, 306}, {4, 229, 1, 307}, {5, 230, 1, 307}, {5, 232, 1, 307}, {6, 231, 1, 307}, {6, 235, 1, 307}, {7, 233, 1, 307}, {8, 234, 1, 307}, {8, 236, 1, 307}, {9, 237, 1, 307}, {84, 165, 1, 308}, {85, 166, 1, 309}, {86, 167, 1, 309}, {87, 168, 1, 309}, {84, 199, 1, 310}, {0, 247, 1, 311}, {0, 248, 1, 312}, {119, 131, 1, 313}, {0, 251, 1, 314}, {0, 252, 1, 315}, {84, 222, 1, 316}, {131, 131, 1, 317}, {131, 165, 1, 318}, {131, 199, 1, 319}, {165, 165, 1, 320}, {131, 222, 1, 321}, {0, 255, 1, 322}, {0, 256, 1, 323}, {0, 257, 1, 324}, {0, 258, 1, 325}, {0, 259, 1, 326}, {0, 261, 1, 327}, {0, 268, 1, 328}, {0, 275, 1, 329}, {0, 289, 1, 330}, {0, 291, 1, 331}, {0, 295, 1, 332}, {1, 262, 1, 333}, {2, 263, 1, 333}, {3, 264, 1, 333}, {1, 269, 1, 334}, {2, 270, 1, 334}, {3, 271, 1, 334}, {1, 265, 1, 335}, {2, 266, 1, 335}, {3, 267, 1, 335}, {1, 272, 1, 336}, {2, 273, 1, 336}, {3, 274, 1, 336}, {1, 292, 1, 337}, {2, 293, 1, 337}, {3, 294, 1, 337}, {1, 286, 1, 338}, {2, 287, 1, 338}, {3, 288, 1, 338}, {4, 277, 1, 339}, {5, 278, 1, 339}, {5, 280, 1, 339}, {6, 279, 1, 339}, {6, 283, 1, 339}, {7, 281, 1, 339}, {8, 282, 1, 339}, {8, 284, 1, 339}, {9, 285, 1, 339}, {0, 298, 1, 340}, {0, 299, 1, 341}, {0, 300, 1, 342}, {0, 302, 1, 343}, {0, 304, 1, 344}, {0, 305, 1, 345}, {0, 308, 1, 346}, {84, 261, 1, 347}, {0, 311, 1, 348}, {0, 314, 1, 349}}
alpha_scalar_moments = 92
alpha_moment_mapping = {0, 84, 119, 129, 130, 131, 165, 199, 215, 219, 220, 221, 222, 238, 245, 246, 247, 248, 249, 250, 251, 252, 253, 254, 255, 256, 257, 258, 259, 260, 261, 268, 275, 276, 289, 290, 291, 295, 296, 297, 298, 299, 300, 301, 302, 303, 304, 305, 306, 307, 308, 309, 310, 311, 312, 313, 314, 315, 316, 322, 323, 324, 325, 326, 327, 328, 329, 330, 331, 332, 333, 334, 317, 335, 336, 337, 318, 338, 319, 320, 339, 340, 341, 342, 343, 344, 345, 346, 321, 347, 348, 349}
species_coeffs = {-1.304805963127011e+00, -2.793968633997282e+00, -1.196622992585985e+01, -3.009578912076198e+00}
moment_coeffs = {-1.694963799909325e+00, 2.731626885153791e+00, -8.336096830283617e-02, -2.386370576489878e+00, 6.897950130921697e-01, 9.237975103116014e-01, 1.362918085737437e+00, -2.176818334263056e-01, -2.220451475321748e-01, 6.786101290452956e-01, 3.657868711540047e-01, -2.810639081197648e+00, 2.243464375874404e-01, 4.244912002221126e-01, 1.947695191684322e-01, -8.287867065537112e-02, 1.446445022506146e+00, -1.338182430089568e+00, -8.887964004848602e-01, 2.391222842785618e-01, 2.238701410594255e+00, -5.076844785699740e-01, -1.342175978492990e-01, -1.450097744643945e+00, -7.743169706171449e-02, 4.816938132896392e+00, 4.593604873177338e+00, 1.548798823609259e+00, -5.741900897807137e-01, 1.480496406172546e-01, -9.833724989245147e-01, 4.662734848089932e+00, -1.022744476696516e+00, -2.859943592693236e+00, -1.250054551664343e+00, 2.215634890860227e+00, -1.358434916041671e+00, -2.033565595147913e+00, 3.173682814543280e+00, -7.095528747979571e-01, -1.165794167642695e+00, -2.775325019177415e-01, -6.874823270608380e-01, -3.121222078937005e-01, -5.079851536431388e-01, 7.165952799146151e-01, 1.039362283562516e+00, 9.072491931137022e-01, -1.726021421901078e+00, -4.079594620265721e-01, 2.775901906389771e-01, -2.358972088432592e-01, -7.204944702408096e-01, -1.949875492452353e-01, -3.055185608889324e+00, 3.134541318974716e-01, 1.170771450163647e+00, 3.811379992917601e-03, 7.272148177109218e-01, 7.449249043649551e-02, 1.346990303959257e+00, -1.366711160841102e+00, 5.060917164918676e-01, 1.314388337747694e+00, -3.304768095565397e+00, -1.279263577880645e+01, -8.520698737562619e-01, 2.500317843591378e+00, -7.445890034278925e+00, -1.225260046677181e+00, 7.457962442037475e+00, -6.897771644406097e+00, 2.554906820821349e+00, 1.343830507015532e+01, -7.934610711063364e+00, 1.487419912322139e+01, -7.990740973744439e+00, -1.065689566406130e+01, -3.833424228664704e+00, -4.738193610226514e-01, 3.303502177287591e+00, -2.868784930813960e-01, -2.998786414520584e+00, 8.264517155561283e-03, -2.776834287433791e+00, 1.352232684296575e+01, 8.765914280462626e+00, 4.153688869549873e+00, -2.156678586362260e+00, -8.325490988038732e+00, -4.778252510680066e-01, 1.691479014851163e-01}